-0.00953988 -0.705819 0.594656 0.128018 0.433087 0.0596423 0.0794858 -0.785133 -0.200272 -1.04831 -0.0543192 0.00694187 0.011582 -0.020095 0.0326084 0.0453246 0.00239194 0.0921541 0.195113 0.0246418 0.0656645 0.0369878 0.0550471 -0.0222802 0.0705655 -0.00241274 0.0132755 0.0696035 0.202484 0.0652567 0.0348914 0.0150394 0.0970525 0.100205 0.0951571 0.0239085 0.055234 0.0648357 0.0100557 0.0581409 -0.0393929 0.187134 0.117014 -0.00115946 0.131007 0.0275851 0.119504 0.0386681 0.0590167 0.013209 0.0122981 0.0239522 -0.0191759 -0.00606283 0.0275639 -0.0140099 0.0117455 0.00496207 0.0103363 -0.00284708 0.18205 0.0155006 0.0136925 -0.0369978 0.0159282 -0.00694656 -0.0203141 0.00792301 0.0552289 -0.0843521 0.0187933 -0.0041535 0.0263207 -0.0291919 0.0403208 0.0822504 0.0719691 -0.0143102 0.0151341 0.0662583 0.00446482 -0.0124728 -0.0275927 0.0327536 0.0381565 0.176668 0.0489721 0.0405701 0.0228646 0.00466058 0.024157 -0.0180994 0.0147867 0.0495069 -0.0849848 -0.203349 -0.111181 -0.02903 0.0547262 0.0154842 -0.0666622 -0.0362095 0.10268 0.111923 0.34364 0.0146059 0.0737276 0.00424681 0.00143496 0.0160811 0.00805672 0.0245416 0.0148626 0.0129642 0.0157723 0.029731 -0.0403234 0.00378441 -0.0108612 -0.0163917 -0.038978 -0.0844527 -0.116356 -0.0519619 0.121594 0.0158094 -0.076061 -0.0601251 -0.0480027 0.00532313 0.0630993 0.0338041 -0.0963347 -0.0245226 0.135072 0.056634 0.0404462 0.0225144 0.0930406 0.00343887 0.0141489 0.0263579 -0.0476443 -0.0392214 0.0649189 0.0302937 -0.0289506 0.0485534 -0.0438691 0.384191 0.0989604 0.190317 0.110537 -0.268378 -0.538179 -0.522783 -0.505729 -0.0632156 -0.0298147 0.131586 0.0203868 0.0639876 0.104696 0.269141 0.152486 0.109771 0.0493492 0.0559968 -0.00118038 0.0307693 0.00810079 0.000567056 0.065635 -0.0651395 -0.0290714 -0.134512 -0.0163971 -0.0905739 0.0393344 0.0359226 -0.312829 -0.618483 -0.787355 -0.54313 -0.186745 0.0936027 0.178929 0.138899 0.087882 0.0273976 0.131471 0.192991 0.206062 0.116166 0.138638 0.0814565 0.0507947 0.0426849 -0.00228748 -0.0705331 0.0433295 -0.240866 -0.0753922 -0.192203 0.00602249 0.0125815 -0.0537807 -0.254561 -0.449421 -0.272369 -0.314426 -0.408659 -0.0901106 -0.0759384 0.0183854 -0.0762824 -0.244188 -0.19953 0.0312688 0.0925819 0.208498 0.117002 0.0725032 0.140399 0.042977 0.0250985 0.00599051 -0.0150326 -0.105177 -0.136626 -0.181001 -0.0151273 0.165877 0.342451 -0.0970793 -0.135172 -0.336687 -0.645124 -0.576994 -0.499373 0.177659 -0.209417 -0.337982 -0.355521 -0.372232 -0.110268 0.068854 0.0222062 0.229375 0.195131 -0.0058507 -0.00111868 0.336529 0.129903 0.16593 -0.00403657 -0.0991723 -0.165529 -0.243165 0.0397957 0.395397 0.211017 -0.13831 -0.101649 -0.48547 -0.594856 -0.59723 -0.46443 -0.123474 -0.286318 -0.56721 -0.441171 -0.423485 -0.267219 -0.0710439 -0.157506 -0.064154 0.0218461 -0.000624383 0.00186313 0.00106452 0.00280068 0.00793126 0.0503744 0.0302915 -0.0582075 -0.0729487 0.156576 0.388641 0.309747 0.0360224 0.0544333 -0.23372 -0.563352 -0.598225 -0.36689 -0.224012 -0.521822 -0.557759 -0.466695 -0.294703 -0.190333 -0.216165 -0.14591 -0.136492 0.0220235 0.0143041 0.00433986 0.00363905 0.000185733 0.0170251 0.034972 -0.068837 -0.126193 -0.038614 0.0619483 0.176972 0.25385 0.235834 0.0973646 -0.081522 -0.331191 -0.358384 -0.212688 -0.132873 -0.347706 -0.447162 -0.305499 0.00908365 -0.131071 -0.18735 -0.19613 -0.151986 0.00738389 0.00382105 8.03025e-05 0.00131167 0.00118615 0.0266133 -0.0740318 -0.159661 -0.179383 -0.0319039 0.0610699 0.11621 0.257837 0.358099 0.298288 0.364789 0.373072 0.330765 0.340288 0.0136087 -0.206905 -0.396066 -0.0114194 -0.00756471 -0.0876799 -0.278368 -0.208625 -0.125359 -0.0127436 -0.0112034 0.00103051 0.00335025 0.000618179 0.0692649 -0.0665938 -0.152644 -0.106336 0.0541627 0.307238 0.253671 0.302476 0.264854 0.421223 0.41133 0.31662 0.0740058 0.0487241 0.0227397 -0.0201516 -0.00528798 0.0884559 0.11531 -0.129632 -0.314578 -0.284495 -0.125741 -0.0228662 -0.00459057 0.00103185 0.00156398 0.000596749 0.0355813 -0.0203311 -0.0469447 0.0216764 0.284435 0.223851 0.0704769 0.0412057 0.0786807 0.0154272 0.119594 -0.0830028 -0.14411 0.0873386 -0.0105626 0.00613491 0.203914 -0.0730081 -0.106224 -0.124915 -0.289116 -0.302485 -0.164331 -0.0281922 -0.00422903 0.00197033 0.0002 0.00203823 -0.000124663 -0.010305 -0.0364009 0.0164597 0.0211026 -0.0893714 -0.0525312 -0.0683996 -0.203341 -0.23478 -0.279011 -0.234473 -0.163064 -0.196728 -0.131168 -0.00410246 0.181218 0.00622926 -0.374725 -0.270554 -0.117869 -0.192297 -0.10827 -0.0421857 -0.0123642 0.00218907 0.00282427 0.0013137 -0.000832262 -0.0102694 -0.0298477 -0.106074 -0.113515 -0.228314 -0.386851 -0.432596 -0.61927 -0.46403 -0.326927 -0.349136 -0.368923 -0.254415 -0.163626 -0.165274 0.23877 0.00920414 -0.279851 -0.334121 -0.065755 -0.0837896 -0.128792 -0.041905 -0.0257421 0.000921351 0.00254941 0.000403174 0.0034779 -0.0136385 -0.0798776 -0.302462 -0.273541 -0.482515 -0.529218 -0.538812 -0.508051 -0.148358 -0.105386 -0.18126 -0.0315216 -0.162502 -0.0534515 -0.125425 -0.0459827 -0.290121 -0.335327 -0.100051 -0.0866802 -0.0860556 -0.121547 -0.0200828 -0.0213526 0.00196805 0.00168927 0.0014449 0.0115486 -0.031986 -0.207461 -0.473903 -0.53141 -0.617658 -0.338042 -0.309776 -0.308098 -0.245915 -0.123972 -0.151185 -0.0125229 -0.20209 -0.13151 -0.0681735 -0.314171 -0.573626 -0.234227 -0.0801313 0.0366722 -0.0805535 -0.101627 -0.00644693 -0.00330891 0.000998848 0.000373665 0.00126754 -0.000442695 -0.0560724 -0.279561 -0.433643 -0.451213 -0.497364 -0.371495 -0.313875 -0.430782 -0.45203 -0.460714 -0.455059 -0.138244 -0.134066 -0.0896185 -0.158633 -0.313741 -0.436605 -0.10561 -0.0888705 -0.00802669 -0.0686666 -0.0530536 0.00132405 0.00271895 0.000335237 0.00188136 0.000414809 0.0193873 -0.0386396 -0.264202 -0.37295 -0.341094 -0.320264 -0.307544 -0.208996 -0.457431 -0.432556 -0.389771 -0.391956 -0.205516 -0.185787 -0.0556856 -0.100648 -0.295003 -0.137614 -0.108429 -0.174995 0.0181241 0.0444983 0.0148519 0.00828471 0.000684947 0.000923825 0.0015534 0.000296946 0.0414758 -0.0158952 -0.202718 -0.397652 -0.360451 -0.297231 -0.311275 -0.264014 -0.298952 -0.238123 -0.121016 -0.109285 -0.157504 0.0556002 0.0662396 0.032201 -0.00132641 0.00165005 -0.021607 -0.106989 0.051154 0.113343 0.0161156 0.00710698 0.000677495 4.65116e-05 0.0019969 0.00156424 0.0257402 -0.027634 -0.173988 -0.297716 -0.423325 -0.340327 -0.425093 -0.496315 -0.248105 -0.274049 -0.155465 -0.100746 0.0203182 0.126876 0.193719 0.117755 0.152172 0.131388 -0.0399681 -0.0253896 0.062244 0.0722633 0.00623861 0.00395356 0.00179321 0.000579495 0.00111276 0.000977778 0.0394606 0.00120056 -0.064928 -0.217024 -0.260192 -0.326816 -0.401496 -0.434153 -0.428797 -0.231531 0.0290693 0.050725 -0.0333126 0.14791 0.116533 -0.152483 -0.104002 -0.0536343 -0.0456913 0.00862903 0.0748348 -0.0137545 -0.00275006 -3.57452e-05 0.00178956 0.00021398 0.000598291 0.0013229 0.0425877 0.0328277 -0.0104941 -0.0240289 0.0064391 0.0261686 -0.134346 -0.174553 -0.142774 0.038887 0.177618 0.0756212 -0.101375 -0.249565 -0.0584443 -0.0194563 -0.144382 -0.0610113 0.0525871 -0.0220324 -0.0376446 -0.0340763 -0.00273453 -0.00278874 0.00164956 0.00037037 0.000821918 0.00114911 0.00431343 0.0263006 0.0451992 0.0330478 0.0617335 0.0259887 0.00889523 -0.111616 -0.138315 0.00179412 0.142926 -0.0229774 -0.244684 -0.217155 -0.176552 -0.0639336 0.0265515 0.039538 0.0237146 -0.0107869 -0.0168519 -0.00673104 0.00056955 0.000195623 0.000629634 0.00126816 0 0.000197628 0.000986842 0.00153604 0.000516668 0.00166083 0.00700905 0.0102424 0.0796934 0.061747 -0.0430246 -0.0270388 -0.042389 -0.0591111 -0.0876528 -0.0818292 -0.105481 -0.0556325 -0.00246529 0.0111052 0.0175209 -0.0113822 0.00127611 0.0034152 0.000564569 0.00153257 0.00172194 0.000305732 0.000687023 0.000762389 3.80711e-05 0.000874525 0.00121566 0.00082872 -0.000448341 -6.76758e-05 -0.000643349 0.000910683 0.00256922 0.0275528 0.0199138 0.00767807 -0.0372543 -0.0349843 0.0281124 0.0314462 0.0387165 0.0214367 0.00136702 -0.0092241 -0.00447548 0.00145811 0.000333333 0.000480888 0.00181034 0.00114391 -0.185206 0.520213 -0.746594 0.0315387 -0.480833 -0.191535 -0.122065 1.50097 0.263665 2.03838 0.142175 0.0774648 0.0840764 -0.0518163 0.00389795 0.0549213 0.077512 0.0300232 -0.327206 0.0109179 -0.0623275 -0.0188254 -0.0998169 0.0654469 -0.123267 0.0508527 -0.0491956 0.247165 -0.391259 0.052221 0.0115756 0.00194029 -0.00394493 -0.102436 -0.07928 -0.0338394 0.0264484 -0.0802677 0.0199437 -0.171593 0.0239542 -0.284169 -0.0722501 0.0430563 -0.127505 -0.0499876 -0.081987 0.0150642 -0.124892 -0.104982 0.00246338 -0.0189536 0.0444408 0.0511091 0.0437531 0.0337344 -0.00260517 0.0282072 0.00433548 0.00190013 -0.00702211 0.0184951 -0.00228529 0.0441441 -0.0196985 0.00555318 0.0150019 -0.265588 -0.305835 -0.00208286 -0.0407135 -0.0383905 -0.00657809 -0.0620162 0.0425393 0.000319939 0.01971 0.0451019 0.0158196 -0.0173635 -0.00254459 -0.00463958 0.0291732 -0.0818037 0.00512659 -0.311025 0.0403844 -0.0783637 -0.00652003 0.0029855 -0.0170753 0.0145758 -0.0313618 -0.120938 0.00749169 0.0785218 0.125946 0.203048 0.247616 0.147262 0.163236 0.138761 0.0972716 0.0678381 -0.185193 0.032375 -0.116617 -0.00145832 -0.00314303 -0.0138143 -0.00774071 -0.0127207 -0.0119795 -0.0163883 -0.0238014 -0.0624979 -0.173432 0.0459922 0.0789552 0.0198559 0.0520215 0.112308 0.160211 0.284363 0.315503 0.199742 0.124467 0.0936917 0.295316 0.302154 0.1071 -0.225408 0.00670651 -0.0315602 0.0870984 0.075057 -0.00305899 0.0319117 -0.204931 0.0289449 -0.0104754 -0.0800144 -0.123111 0.120968 -0.0405982 0.0304343 0.111774 -0.026922 0.316951 -0.140299 0.498418 0.457762 0.155323 -0.201824 -0.569984 -0.548125 -0.49197 -0.352148 -0.141059 -0.417813 -0.239803 -0.322624 -0.0765624 -0.048094 -0.0804179 -0.110335 -0.0350526 -0.000430812 0.00635259 -0.0555975 0.000579355 -0.0103401 -0.0966265 -0.021323 -0.0245757 0.14927 0.178892 0.638641 0.445816 0.212054 -0.0615356 -0.340642 -0.502906 -0.208617 0.0894881 0.204633 0.0426204 -0.344598 -0.0828964 -0.0630178 -0.168479 -0.179678 -0.0918458 -0.147945 -0.237852 -0.0243287 -0.0882064 -0.0887239 -0.00386189 0.39809 -0.146863 -0.00308936 0.155528 0.240188 0.1822 0.182508 0.429934 0.601522 0.507313 0.441993 0.451811 0.973306 1.21565 0.774228 0.58912 0.307745 0.122568 -0.0881753 -0.179383 -0.141956 -0.0940025 0.0748551 -0.132032 0.0969162 -0.0918238 -0.0380537 -0.0128157 0.0548144 0.109161 0.0854707 0.287854 0.361199 0.475504 0.36785 0.834049 0.603213 0.395415 0.553697 0.484895 0.936098 0.72049 0.799234 0.508192 0.0371657 0.0659397 -0.0483706 -0.0959971 0.0128272 -0.0961491 -0.0998449 -0.0558093 -0.00838464 -0.301624 -0.112451 -0.179452 0.159126 0.185837 0.22062 0.338497 0.445746 0.686979 0.442578 0.142353 0.344333 0.370379 0.789512 1.01269 0.78449 0.728218 0.79114 0.500845 0.260603 -0.0659654 0.0171146 0.0622243 -0.00274871 -0.0686038 -0.0253835 0.0262139 0.0132073 0.00367742 0.00300125 0.0482203 0.163802 0.191791 0.253891 0.368578 0.563155 0.60525 0.163825 -0.135426 -0.026091 0.348407 0.750336 0.825361 0.305653 0.10021 0.483157 0.645339 0.150859 -0.0783775 0.207115 0.135459 -0.106778 -0.0571611 0.0411981 0.0128628 0.00427251 0.00284024 0.00371486 0.0353465 0.115154 0.149836 0.327016 0.395196 0.504501 0.349722 0.0652136 -0.342018 -0.351177 0.2207 0.675142 0.453728 0.32675 0.419567 0.871588 0.719248 0.221016 0.196792 -0.0484231 -0.0223218 -0.0669742 -0.087444 -0.0211385 -0.0193871 -0.00465023 0.00393727 0.00515271 0.00424306 0.0248721 0.17727 0.320064 0.203565 0.23057 0.0320803 -0.0494392 -0.272104 -0.404468 0.0157313 0.358813 0.190363 0.480892 0.700128 1.10353 0.785545 0.336869 0.203651 -0.128047 -0.270755 -0.292433 -0.16964 -0.00919019 -0.00811227 0.002624 0.00190355 0.0025415 0.00362101 -0.0116598 0.0529166 0.131454 -0.183608 -0.173061 -0.0774059 0.261737 0.0781396 -0.141119 -0.197434 -0.336593 -0.190495 0.172338 1.00439 1.18266 0.82277 0.346131 0.236579 -0.0338074 -0.254152 -0.317087 -0.131987 0.0151005 0.0117199 0.00307777 0.00184834 0.00183509 0.00338186 -0.00617269 -0.0945245 -0.179439 -0.287495 -0.25096 0.00440114 0.30584 0.377104 0.146651 -0.192351 -0.433269 -0.523544 0.190191 0.829604 0.963443 0.672673 0.379224 0.14517 0.132956 -0.151098 -0.308469 -0.096467 0.0287024 0.0188507 0.00151592 0.0026 0.000663785 -0.000179284 -0.00744691 -0.152952 -0.443006 -0.181742 -0.0417767 0.0230023 0.456629 0.351619 0.280242 -0.107174 -0.402011 -0.254945 -0.0328366 0.542141 0.771203 0.554753 0.477535 0.243364 0.297785 0.0439893 -0.170278 -0.00424462 0.0373908 0.00767357 0.00287039 0.00169456 0.0023182 -0.000363684 0.00221516 -0.1682 -0.409572 -0.151254 -0.0192874 0.174378 0.0809936 -0.223291 -0.297179 -0.276066 0.0536052 0.0847724 0.118284 0.433933 0.585684 0.333033 0.458831 0.414469 0.425952 0.234832 0.00536231 0.0737856 0.0528055 0.0211013 4.29912e-05 0.000948617 -1.90811e-06 -0.000886359 -0.00545003 -0.175424 -0.250227 -0.138099 0.117652 0.12611 -0.167812 -0.621841 -0.388802 0.010882 0.308615 0.54007 0.462035 0.464038 0.343702 0.246322 0.185833 0.173221 0.239886 0.114201 0.0408828 0.0665255 0.0359078 0.00429726 0.00268763 0.00155764 0.0010691 0.00654021 -0.00476575 0.00273484 -0.178155 0.0530408 -0.0115998 -0.167055 -0.449816 -0.629272 -0.411524 0.346963 0.484295 0.709224 0.398512 0.312656 0.330187 -0.0803327 0.035712 0.106038 0.206625 0.00217183 0.066415 0.0180183 0.00188051 -2.18631e-05 -0.000364918 0.00149466 0.00012835 0.00503919 0.01073 0.0944424 -0.0583639 0.0724636 0.00541708 -0.236687 -0.511732 -0.614192 -0.195109 0.427326 0.403948 0.435078 0.282866 0.382292 0.13632 -0.0143022 0.0730157 0.324895 0.186332 0.121156 0.0152647 0.0163668 0.023309 0.00771138 0.00095528 0.00147458 0.00147374 0.00695935 0.0386985 0.090839 0.118531 0.089873 -0.186638 -0.359669 -0.234441 -0.168516 0.108793 0.290957 0.495295 0.629383 0.164498 0.214593 0.0386697 -0.109113 0.298966 0.127689 0.00953611 0.0435947 0.0565714 0.107107 0.0225882 1.30976e-05 0.000729335 0.00184466 0.00128178 0.0224584 0.0754444 0.0928968 0.040698 0.041648 -0.260772 -0.266905 -0.172615 0.245351 0.613043 0.427001 0.441287 0.330553 0.163098 0.157259 0.0104491 0.202223 0.282476 0.169813 0.00629369 0.0690387 0.146183 0.0292936 0.00950127 -0.010427 0.00162791 0.000464396 0.00226379 0.0238056 0.0402213 0.0866685 -0.0121828 -0.118075 -0.158135 -0.163696 -0.0408875 0.263525 0.250822 0.1571 0.340227 0.286187 0.128535 -0.0217674 0.00237019 -0.143467 -0.102309 -0.123801 -0.143806 0.0153929 0.0150274 0.000713752 0.00211744 -0.00516548 4.45765e-05 0.00106825 0.00146667 0.0358873 0.0283374 0.0564486 -0.0468189 -0.0736747 -0.0343585 -0.00057777 0.108723 0.3451 0.202581 0.145537 0.305501 0.0759154 -0.211167 -0.346376 -0.354989 -0.521187 -0.304876 -0.235185 -0.142638 -0.0150287 0.00843946 0.00292113 0.00215697 0.00135649 0.00124108 0.0017094 0.000213371 0.0328272 0.0399594 0.0577312 0.03394 0.0389048 0.243994 0.371978 0.430941 0.712113 0.650576 0.563936 0.543884 0.298708 0.0792931 -0.102308 -0.319032 -0.240687 -0.0234065 0.0294788 0.0406128 0.0680603 0.00726747 0.000887436 -0.000722837 0.000997539 0.000329218 0.00069863 0.000328317 0.00344277 0.0207495 0.0564883 0.090359 0.112777 0.19812 0.346817 0.414879 0.524821 0.615613 0.589983 0.604567 0.60423 0.704078 0.662492 0.506403 0.340157 0.346472 0.135594 0.0236306 0.0219044 0.0111172 0.0021182 0.000485002 3.24368e-09 0.00194188 0.0014248 0.00118577 0.00189474 0.00122191 0.00833004 0.0224865 0.0275249 0.0665594 0.165664 0.240958 0.190922 0.111434 0.161285 0.27124 0.377445 0.385052 0.331883 0.27398 0.227734 0.18094 0.0578399 -0.0196325 -0.00758133 0.000863445 0.00105231 0 0.000267857 0.00110828 0.00118321 0.00171537 0.00106599 0.000988593 0.000402868 0.00835509 0.0105675 0.0119327 0.0110443 0.0008137 0.00237954 0.0306646 0.0435101 0.029791 0.0350415 0.0799429 0.0705358 0.0298993 0.114629 0.047888 -0.0330847 -0.0482277 -0.00900418 0.00180931 0.001 0.000628853 0.00107143 0.000590406 0.201553 -0.694949 0.501722 0.112328 0.457637 0.121321 0.0965362 -0.922497 -0.171977 -1.52773 -0.0752392 -0.0449204 -0.0345667 0.0177626 0.0536383 -0.0155828 -0.0480505 0.0665433 0.224239 0.0308924 0.0801918 0.120194 0.0799566 -0.0456738 0.0681421 -0.0225619 0.0442917 0.00202329 0.310474 0.019957 0.0205925 0.012104 0.0876001 0.117435 0.100424 0.041636 0.0214038 0.0808191 0.0113319 0.134984 -0.00685582 0.250091 0.136349 -0.0115557 0.183184 0.0443355 0.163187 0.036523 0.106801 0.0718274 0.0140811 0.0271231 -0.0408481 -0.0147749 -0.00146983 -0.0186022 0.00505357 -0.00342597 -0.00219128 0.00243554 0.193106 0.00696314 0.00980677 -0.0207532 0.0266075 0.0147992 -0.0028313 0.183393 0.183657 -0.044395 0.0977097 0.0988869 0.150988 0.104704 -0.0161702 -0.0361045 -0.00513662 -0.0180178 -0.0178498 0.0486839 0.0129855 0.00367036 -0.0208363 0.0723498 0.0246905 0.229472 0.0435684 0.0604004 0.0270087 0.00301054 0.0201943 -0.0197825 -0.0545842 -0.0446114 -0.135752 -0.191376 -0.126528 -0.0466013 0.00999797 -0.0724582 -0.141284 -0.248041 -0.193515 -0.0715633 0.241004 0.0261472 0.0813861 -0.0232227 -0.00257464 0.0214666 0.00507349 0.0199653 0.0203095 0.0202249 0.0220192 0.0692714 0.0631833 -0.00727839 -0.0555392 -0.0639112 -0.105859 -0.187226 -0.20663 -0.313728 -0.324597 -0.234769 -0.247674 -0.121803 -0.162434 -0.344679 -0.356675 -0.227222 -0.151303 -0.24124 -0.0601869 -0.057118 -0.0314624 -0.0180145 0.197875 -0.00197142 0.0210224 0.0601067 0.0103154 -0.0397082 0.0607555 0.00356687 -0.114891 -0.132144 -0.389032 -0.00790059 -0.41022 -0.303938 -0.223519 -0.0402923 -0.128637 0.0301041 -0.0823435 -0.256691 -0.684758 -0.449132 -0.329115 -0.089007 -0.104258 -0.00585028 -0.0103623 0.0450966 0.0637795 0.0587659 0.000715301 0.0475864 0.0088646 0.0145011 0.0871098 0.000819232 -0.0583918 -0.336222 -0.382753 -0.849815 -0.409087 -0.229329 0.0697735 0.08566 -0.0935781 -0.123775 -0.187234 -0.0909883 0.00288076 -0.032821 -0.0968828 -0.166062 -0.0660796 -0.0393047 0.0239442 0.0258779 0.147113 0.0972228 0.0690178 0.0744543 0.00202774 -0.168986 0.14831 -0.193119 -0.165011 -0.36872 -0.432798 -0.396543 -0.180727 0.116365 0.223142 0.13179 0.23622 0.145971 0.309117 0.331986 0.402932 0.310638 0.18994 -0.00695379 -0.0412007 -0.0773063 -0.130796 -0.135225 0.0182847 0.0623746 0.0890044 0.0469235 0.0173858 0.0102746 -0.0356304 -0.0706038 -0.206582 -0.301672 -0.366191 -0.156903 -0.049297 0.304736 0.142431 0.129781 0.322428 0.565503 1.05633 0.521838 0.618991 0.498614 0.136425 0.100194 0.095661 0.0879817 0.0837563 0.00652126 -0.0661956 -0.00667685 0.354296 0.138486 0.219462 -0.0131274 -0.0808683 -0.141117 -0.251178 -0.352382 -0.277287 -0.211229 0.0867595 -0.0893959 -0.133658 -0.138045 0.0535635 0.326802 0.0512073 0.0801217 0.317549 0.634564 0.333689 0.23677 0.27889 0.150732 -0.0785849 -0.178299 -0.0623378 -0.00749423 0.000774194 0.00338097 -0.00975598 -0.0550817 -0.10555 -0.190262 -0.322883 -0.262452 -0.155302 0.0294535 0.0840253 0.204645 -0.175041 -0.191158 -0.255757 -0.28263 -0.331309 -0.226403 0.0366753 0.377328 0.489651 0.310836 0.260158 0.361027 0.0517616 -0.152752 -0.065768 -0.000320128 0.000443787 0.00140521 -0.00462983 -0.0480881 -0.122699 -0.285256 -0.30364 -0.0115672 0.0785456 0.383905 0.372162 0.211766 -0.339305 -0.557373 -0.468461 -0.481162 -0.69364 -0.544808 -0.203064 0.13435 0.399159 0.482241 0.350042 0.388863 0.158537 -0.0736518 -0.0247205 -0.00380432 0.00270556 0.00263929 0.00467862 -0.0186131 -0.15206 -0.165117 -0.0261294 0.168534 0.357429 0.696982 0.512556 0.0663457 -0.480119 -0.738398 -0.71138 -0.802531 -0.849472 -0.760042 -0.278742 -0.0106331 0.145858 0.395937 0.416816 0.450896 0.16338 -0.0352839 -0.00295742 0.00073101 0.00159898 0.00364354 0.00392123 -0.0153058 -0.126474 -0.0478647 0.28889 0.39131 0.695391 0.801242 0.360891 -0.289571 -0.651006 -0.859786 -0.89902 -0.858903 -0.857838 -0.65365 -0.217555 -0.020663 -0.0344136 0.292437 0.225921 0.434423 0.128516 -0.0427419 -0.0170218 0.00223401 0.00149289 0.000678999 0.00457559 -0.0183511 -0.127659 0.248093 0.422051 0.57764 0.945745 0.653794 0.0804929 -0.41242 -0.946415 -1.04822 -1.01442 -0.829357 -0.652356 -0.377407 -0.23152 -0.277274 -0.0761512 0.180024 0.214302 0.380946 0.00800237 -0.0652785 -0.0348254 0.00295694 0.000666667 0.00286742 0.0027622 -0.0454784 0.0646439 0.335539 0.292735 0.761929 1.02214 0.390498 -0.0364608 -0.862531 -1.16916 -1.18978 -0.957386 -0.754708 -0.75521 -0.527694 -0.390918 -0.235309 -0.0959287 0.0964739 0.252765 0.325844 -0.116871 -0.084705 -0.0495046 0.00176112 0.00188285 0.00199594 -0.000844177 -0.0547954 0.191533 0.34869 0.224707 0.703644 0.592266 0.236934 -0.114556 -0.920312 -1.13494 -1.09724 -0.878377 -0.756689 -0.768298 -0.587467 -0.339846 -0.196633 -0.0996874 -0.0528085 0.094057 0.0922321 -0.192194 -0.0789792 -0.0227818 0.000288625 0.000355731 0.000354821 -0.00282698 -0.0739263 0.139271 0.303416 0.19072 0.370104 0.296532 0.221739 -0.235709 -0.839229 -0.950942 -0.897656 -0.901492 -0.830109 -0.644103 -0.426621 -0.056931 -0.184805 -0.1436 -0.0981112 0.0984219 -0.0730335 -0.150663 -0.058488 -0.0222172 -0.00862529 0.00202253 0.00168605 -0.00848049 -0.10964 -0.06713 0.0588493 0.0212791 0.11818 0.293782 0.213708 -0.339448 -0.91386 -1.09268 -0.942767 -0.826302 -0.587484 -0.514214 -0.185554 0.00534083 -0.0735917 -0.0902979 -0.0980586 0.18469 -0.167511 -0.142408 -0.0228733 -0.00796795 -0.00467272 0.00240214 0.00208868 -0.00791511 -0.163483 -0.161411 -0.0870052 -0.157922 -0.0863352 -0.0229646 0.119462 -0.0973722 -0.484338 -0.658064 -0.711438 -0.427641 -0.422145 -0.244333 0.112828 0.0234449 -0.169088 -0.107835 -0.115215 0.00532699 -0.174719 -0.101344 -0.025254 0.000671777 0.00228308 0.00208475 0.00182488 -0.00287691 -0.189565 -0.139803 -0.254849 -0.201476 -0.220124 -0.232731 -0.251063 -0.173427 -0.332091 -0.383257 -0.256375 -0.171194 -0.107082 0.000384751 -0.0296879 -0.110697 -0.153391 -0.299562 -0.285541 -0.165036 -0.152781 -0.0810573 -0.00791125 0.00166907 0.00082658 0.0018932 0.00199627 -0.0038115 -0.109305 -0.2191 -0.244637 -0.235804 -0.00508854 -0.103904 -0.0878339 -0.110032 -0.102325 -0.122927 -0.132772 -0.114437 0.0536118 -0.0606236 -0.0855814 0.00349001 -0.0998005 -0.310726 -0.234841 -0.194624 -0.134558 -0.0214166 0.00303587 0.00265117 0.000139535 0.00176471 0.000694278 -0.00342582 -0.0522798 -0.226859 -0.253057 -0.180553 -0.20111 -0.00552738 0.0911999 -0.0411951 -0.161387 -0.225912 -0.213874 0.0675399 -0.0312171 -0.0875802 0.02707 0.0798104 -0.159074 -0.255322 -0.23666 -0.18664 -0.0744289 -0.00660449 0.00287366 0.00257262 0.00182764 0.000356083 0.00208889 -0.000824256 -0.00854383 -0.0960253 -0.147641 -0.183397 -0.224571 -0.172045 0.154275 0.363349 0.332821 0.189407 0.0129224 0.135639 0.0809837 -0.0437005 -0.0485178 -0.157476 -0.166126 -0.226482 -0.209383 -0.126126 -0.0413299 -0.00342858 0.00261822 0.00170649 0.000556348 0.000598291 0.000426743 -2.77925e-05 0.00314381 -0.0166134 -0.0209947 -0.0709763 -0.143466 -0.17452 -0.149176 -0.0247633 0.0904621 0.054293 0.0223109 -0.0354598 -0.111227 -0.186614 -0.134675 -0.0141718 0.00100793 -0.0636751 -0.0771546 -0.0640986 -0.0276405 -0.000876411 0.00106878 0.00196587 0.000452675 0.000780822 0.0019699 0.00189038 0.000470003 -2.21617e-05 -0.012118 -0.0508423 -0.0826035 -0.0911978 -0.0357303 -0.0577257 -0.0848415 -0.0685324 -0.104843 -0.0301693 -0.0245266 -0.0373538 0.0386139 0.0121856 -0.0225412 -0.0385419 -0.0405882 -0.0448232 -0.025649 0.000315134 0.00196472 0.00193514 0.00114927 0.00138522 0.00027668 0.00130263 0.000469843 -7.54216e-05 -0.0225813 -0.0271746 -0.0092731 0.0291332 0.0214027 -0.0250852 -0.0410802 0.0238043 0.0603371 0.0210541 0.0166065 -0.0285122 0.00822397 0.0251707 -0.00658085 -0.0261969 -0.020545 -0.0359931 -0.0102725 0.000114599 0.00114943 0.00107143 0.00118471 0.00148855 7.62389e-05 0.00114213 0.000836502 0.000532356 0.000257438 0.00182321 0.00319046 0.00343133 0.00330454 0.00196459 0.000469272 -0.000607977 -0.00538873 -0.0418618 -0.060695 -0.034863 -0.0139528 -0.00178972 -0.0034913 -0.015809 -0.0129427 -0.0329744 -0.00740924 0.000111111 0.000406905 0.00147783 0.000442804 0.118379 -0.469558 0.330601 0.034856 0.177629 -0.0354994 0.0735661 -0.413582 -0.0938122 -0.722249 -0.0253915 -0.00836103 0.0341208 0.0261758 0.0142396 0.0170595 -0.0170494 0.0641083 0.124273 0.0306347 0.042691 0.0242654 0.0483715 -4.06338e-06 0.0347133 0.00779342 0.0326541 0.0470385 0.123917 0.0440617 0.00830816 0.0129745 0.073578 0.0547244 0.0565826 0.0137429 0.0193477 0.0257258 0.0112773 0.0479625 -0.00126639 0.109376 0.0828057 0.000679755 0.128814 0.0260925 0.0723627 0.018707 0.0432959 0.0321269 0.0153311 0.00924767 -8.97138e-05 0.00343204 0.0117848 0.00339267 0.0100863 -0.00432569 0.010072 -0.00854156 0.0854099 0.00987323 0.00955526 -0.0451303 0.00127834 9.62605e-05 0.00169956 0.0601338 0.0907734 -0.00505646 0.00569986 0.0244881 0.0302619 0.0705427 0.00888342 -0.00999609 0.0156953 0.00140071 0.0072442 0.0320174 0.0341056 0.023649 -0.0174069 0.029601 0.0332014 0.131112 0.016797 0.0426545 0.0207129 0.00812399 0.0130396 -0.0060244 0.0237938 0.0516012 -0.0102776 -0.0487324 -0.0215514 -0.030278 -0.0815748 -0.0650744 -0.0290408 -0.0558348 -0.0563811 -0.0511242 0.121932 0.0159473 0.0336053 0.00613264 0.0015266 0.0056307 0.00693489 0.0163497 0.014102 0.00845133 0.0211571 0.0230859 0.0315115 -0.00361459 -0.0158399 0.0105096 -0.0184196 -0.0712371 -0.130157 -0.200169 -0.126362 -0.0328443 0.100449 0.224839 0.093827 -0.0978708 -0.0494355 -0.0242306 0.0136737 0.0261652 0.0811965 0.00785929 0.0168898 0.00415361 0.110562 0.000558107 0.0138207 0.024663 0.00396149 -0.00687681 0.0362479 0.0199058 -0.0451996 0.0405764 -0.0594991 0.0427392 -0.272085 -0.416753 -0.252689 -0.0118606 0.358808 0.513126 0.135472 -0.170165 -0.216273 -0.11422 -0.0696059 0.0176317 -0.0192584 0.010887 0.0396813 0.0670394 0.0311357 0.0390652 0.00607921 0.0196131 0.00574023 0.00631512 0.04428 -0.0157081 -0.00102825 -0.0452987 -0.0769181 -0.335458 -0.40306 -0.426149 -0.213814 0.0406897 0.260569 0.173682 -0.0631569 -0.367118 -0.281371 -0.121126 -0.131438 -0.0839268 -0.029802 0.0368277 0.0661476 0.0574243 0.0582373 0.0110961 0.0413544 0.0269036 0.00394015 -0.0264827 0.0538699 -0.14 -0.0733971 -0.101868 -0.15505 -0.167329 -0.249994 -0.343907 -0.222148 0.0916812 0.158392 0.0014486 -0.216832 -0.388903 -0.250203 -0.0883541 -0.0218425 -0.00145269 0.0174664 0.0888671 0.0913285 0.0377988 0.0444947 0.0296168 0.034404 0.0307751 0.00748493 -0.0330061 -0.0491569 -0.0264112 -0.0695314 -0.118149 -0.195804 -0.219599 -0.302186 -0.279385 -0.224865 0.0198064 0.179608 0.0244879 0.0245627 -0.22078 -0.158325 -0.0475603 -0.116327 -0.0430045 -0.0130241 0.0560835 0.124359 0.113926 0.00539403 0.00200532 0.208396 0.0881262 0.108056 -0.0358081 -0.0655163 -0.0999795 -0.112871 -0.07959 -0.0713161 -0.193358 -0.179724 -0.20452 -0.179218 0.113327 0.225497 0.0434233 -0.146292 -0.326723 -0.202057 -0.213018 -0.174247 -0.106316 -0.0693588 0.0102432 0.0287348 0.0232517 0.00923912 0.00195452 0.00145161 0.00355567 -0.00126082 -0.0199531 -0.0702603 -0.0947517 -0.0704224 -0.0382113 0.0230271 -0.0207559 0.00430941 -0.0483965 -0.121003 0.253202 0.168022 -0.0254825 -0.140523 -0.253199 -0.257519 -0.239796 -0.181713 -0.0524285 -0.0123211 0.00850885 -0.000896725 0.0164206 0.00353258 0.00244961 0.00381657 0.000536499 0.000173285 -0.00775987 -0.0310683 -0.0377656 -0.00588628 0.026829 0.0197984 0.00120052 -0.00435088 -0.171364 -0.21206 0.111131 0.0704532 -0.0210918 -0.103616 -0.264718 -0.222546 -0.148633 -0.0585658 0.0237956 0.026659 0.00946826 -0.005907 0.00470089 0.00147301 0.00206261 0.00352437 0.00153223 0.00179058 -0.00256852 -0.00499161 0.0139076 0.0541292 0.0731287 0.0462713 0.0264471 -0.0156571 -0.19568 -0.187045 0.0547862 0.00897264 -0.0177268 -0.106203 -0.263634 -0.115514 -0.0155742 0.014227 0.0350208 0.0184798 0.000798789 -0.00314317 -0.000390115 -0.00399495 0.000168452 0.000304569 0.00345968 0.00168219 0.00062404 0.00852668 0.0292243 0.0585057 0.0820434 0.0369107 0.0107814 -0.0293962 -0.162729 -0.149951 -0.0442513 -0.0490135 -0.0395876 -0.0323782 -0.155801 -0.0112703 0.0350715 0.0259882 -0.000682279 0.00185216 -0.0122649 -0.0108023 -0.00705905 -0.00408268 0.000773273 0.00063981 -0.000137667 0.00326909 0.00260575 0.00679305 0.00592178 0.0144048 0.0515829 0.0111707 -0.0235551 -0.0616106 -0.192425 -0.233688 -0.0683231 -0.064142 -0.0451959 -0.0246155 -0.0552426 0.00482459 0.0150603 0.00175168 -0.0162449 -0.0136291 -0.00966726 0.000933053 0.00118922 0.00133021 0.00186847 0.00213333 0.000312244 0.000222369 -0.00267247 0.00337563 -0.0314025 -0.0414015 -0.0358174 -0.0135462 -0.0342364 -0.130084 -0.149601 -0.164616 -0.00552422 0.00883216 -0.0771532 -0.0513306 -0.209156 -0.119385 -0.0548746 -0.0551288 -0.0405564 -0.0400585 -0.028643 -0.00650381 -0.000766577 -0.000229851 0.000931883 0.00144351 0.00158378 -0.000914618 -0.00974316 -0.00910094 -0.0417203 -0.0648474 -0.0054498 -0.01325 -0.0854454 -0.109019 -0.168008 -0.148556 0.0806327 0.106573 -0.0239582 -0.135419 -0.308325 -0.271716 -0.150949 -0.075788 -0.0514037 -0.0325237 -0.00761564 0.000833387 0.0034562 -0.00103048 0.00106234 0.00195652 0.000477481 -0.00256259 -0.0166501 -0.025798 -0.0447276 -0.0447608 0.0467746 0.0196064 0.016358 -0.0291618 -0.160385 -0.089957 0.238715 0.200125 0.0475452 -0.193646 -0.252591 -0.259235 -0.187333 -0.129809 -0.0474554 -0.01691 0.00291835 0.0228656 0.0154871 0.00177613 0.000864592 0.00190382 0.00110632 -0.00253048 -0.0246299 -0.0423039 -0.0807251 -0.0761581 -0.0264036 -0.00597844 0.0484585 -0.0277847 -0.0634299 -0.0793285 0.293861 0.286374 0.086928 -0.199057 -0.178372 -0.239929 -0.177446 -0.151818 -0.112736 -0.0826028 0.0187538 0.0176013 0.0187681 0.000576749 0.00249587 0.00202847 0.000240408 -0.00220703 -0.0274426 -0.0560486 -0.1032 -0.0994291 -0.0654022 -0.0574001 -0.0464517 -0.127069 -0.198392 -0.0152899 0.259654 0.226036 0.0995454 -0.127582 -0.171599 -0.130723 -0.118382 -0.119555 -0.115262 -0.0671065 0.0181176 0.0167654 0.00458999 0.00173056 0.000730478 0.00228814 0.00154543 -0.00479548 -0.0149143 -0.0393424 -0.123782 -0.135895 -0.0770189 -0.0946755 -0.153332 -0.231071 -0.306366 -0.0855969 0.0622556 0.0900914 0.0948577 -0.0606399 -0.176693 -0.115036 -0.0956958 -0.0999949 -0.0948959 -0.0478097 -0.00758786 0.00739421 0.0048857 0.000515949 0.00184765 0.00101942 0.0019464 -0.00202061 -0.025118 -0.0490678 -0.105378 -0.145603 -0.0927447 -0.0959225 -0.161883 -0.232983 -0.271086 -0.175072 -0.0377209 -0.0336734 0.103651 -0.0136515 -0.172269 -0.128421 -0.145166 -0.0933577 -0.0582566 -0.0356089 -0.0219753 -0.0118874 0.00310109 0.000449494 0.00125581 0.000417957 0.000869234 0.000929187 -0.00967481 -0.0135102 -0.0253287 -0.0851231 -0.0863381 -0.0975265 -0.151056 -0.231313 -0.25587 -0.154725 -0.020996 -0.00655772 0.0834716 0.0486864 -0.10038 -0.101889 -0.0371556 -0.0405328 -0.00309203 -0.00539466 -0.0070286 0.0028759 0.00245521 0.000564135 0.00147103 0.00155786 0.000888889 -7.29833e-05 -0.00816302 -0.0217101 -0.0379522 -0.0397807 -0.0825335 -0.109034 -0.165693 -0.254056 -0.182404 -0.0973895 0.0578037 0.13183 0.133784 0.101369 0.0260741 -0.0503346 -0.0101971 0.019915 0.00604808 -0.00549499 -0.00521365 -0.000330477 0.00178106 -0.000498264 0.00184023 0.00183761 0.00183499 0.000219473 -0.00518948 -0.0236567 -0.0360965 -0.0511954 -0.0897967 -0.106081 -0.0667875 -0.0751933 0.0365251 -0.104666 -0.316783 -0.321694 -0.169418 -0.0175986 0.0547633 -0.0260618 -0.00747263 0.0238386 0.00915728 0.00145649 0.00183839 0.00186554 0.00266576 0.00142627 0.000781893 0.000821918 0.00176471 0.00164587 -3.63072e-05 -0.00587493 -0.00740461 -0.0211656 -0.0278159 -0.0601189 -0.0642995 -0.0597571 -0.036092 -0.137497 -0.238551 -0.228615 -0.198828 -0.0672935 -0.00746708 0.0107449 0.00688954 0.00739868 0.00546794 0.00343605 0.000230231 -4.25945e-05 0.00157892 0.00109454 0.00130779 0.00158311 0.000474308 0.00106579 0.0010597 0.000391563 -0.00923116 -0.0121447 -0.0136698 -0.0233353 -0.0150921 0.000894336 -0.00428794 -0.0532883 -0.0395175 -0.0875765 -0.0860702 -0.0395881 -0.0117265 -0.00836527 0.00147039 0.000756064 -0.000187416 0.000277927 0.000171203 0.00114575 0.000114943 0.00164541 0.000802548 0.00133588 0.00106734 0.00163706 0 0.00019007 0.00521337 0.00515516 0.000408381 0.00252884 0.00147617 0.00189219 -0.00234385 -0.019429 -0.0156786 -0.00492292 -0.00290051 0.000731669 -0.000398887 0.000428107 0.0002461 0.000476334 0.000126812 0.00109426 0.00134765 0.000518519 0.00025894 0.0017734 0.000221402 -0.0544952 -0.00174 0.0925216 0.00457944 -0.0565243 0.0848631 0.0247101 -0.123622 -0.038601 -0.116277 -0.0414146 -0.019998 -0.0186074 0.02063 0.0378267 -0.00146411 -0.0104489 0.040336 0.0384219 0.0198595 0.0472026 0.0182168 0.0128498 -0.0269756 0.0105741 0.00514617 0.0164765 -0.036086 0.034545 -0.00245457 0.0113016 0.000711493 0.0337255 0.0634955 0.0322963 0.0140248 -0.00136021 0.0518542 0.012502 0.0376201 0.0144541 0.105442 0.0365213 0.00854446 0.0424928 0.0196788 0.0442176 0.013001 0.0319825 0.0452175 0.0166054 0.0180786 -0.0153904 -0.0049016 -0.0061213 -0.0123382 0.00418788 -0.00377122 -0.00143067 0.00752949 0.0452798 -0.00022331 -0.00286542 0.00156645 0.02166 0.000124466 0.0205639 0.152258 0.17671 0.0452405 0.135509 0.221775 0.256683 0.277704 0.195734 0.130808 0.0616939 0.0333171 -0.00277168 0.0129682 0.0258219 -1.31617e-05 -0.00450098 0.0348774 -0.000448059 0.0475565 -0.0117093 0.0212038 0.0167824 0.00631566 0.0179268 -0.014572 -0.100964 -0.1073 -0.10956 -0.0610671 -0.0641458 0.100821 0.0861276 0.0937152 0.219987 0.35669 0.369682 0.220289 0.168342 0.135353 0.0929048 0.0343013 0.0168372 0.0098703 0.00437333 0.0100448 0.0117021 0.0142829 0.0136369 0.0179614 0.0286296 -0.00719281 -0.0197465 -0.0772295 -0.167269 -0.170144 -0.139525 -0.156705 -0.0861774 0.0378862 0.0505484 0.170028 0.219297 0.196952 0.0405687 -0.0580723 -0.0369432 0.0463641 -0.0672085 -0.0286213 -0.00544271 -0.00397095 0.0314806 -0.000821188 0.00313461 0.0148858 0.024707 0.0113521 0.0159054 -0.00134507 -0.0303616 -0.0652301 -0.117936 -0.117578 -0.25055 -0.363132 -0.113974 -0.0682484 -0.0331796 0.116052 0.113459 0.0760969 -0.158731 -0.25145 -0.238423 -0.210233 -0.277179 -0.180097 0.00442217 0.0383575 0.0452848 0.0151047 0.00106983 0.0154976 0.00609994 0.0089664 0.0345781 0.0745153 0.152242 0.0391974 -0.0980887 -0.200589 -0.401388 -0.209606 0.039388 -0.0645828 -0.0958665 0.0936958 0.072566 -0.067001 -0.20457 -0.196314 -0.190258 -0.342226 -0.318416 -0.330657 -0.0495613 0.0141167 0.0647409 0.0247214 0.0138149 0.0209057 0.00196692 -0.0579476 0.0878111 0.0896604 0.117028 0.0633311 -0.0729386 -0.219866 -0.192964 -0.0673501 0.0381567 -0.00844789 0.177538 0.188919 -0.0678679 -0.226549 -0.453613 -0.384437 -0.204111 -0.192904 -0.312556 -0.370202 -0.100754 -0.0191131 0.00769469 0.0105936 0.0161142 0.0116101 0.00810046 0.00175648 0.00905441 0.0534726 0.140418 0.0399413 -0.0772174 -0.169336 -0.0475308 0.165281 0.0849276 0.074743 0.321658 0.24636 -0.058154 -0.207854 -0.399308 -0.538367 -0.457767 -0.210154 -0.215505 -0.273961 0.0487961 0.0611429 0.00961601 0.00705781 0.0658065 0.040847 0.0330073 -0.0160265 0.00514798 0.0699678 0.126776 0.180376 -0.0448354 -0.0392305 0.156262 0.190788 -0.0893347 0.179179 0.275781 -0.0821799 -0.382938 -0.471042 -0.366479 -0.476865 -0.31623 -0.164979 -0.17929 -0.0696224 0.0392582 0.0226873 0.0105597 0.0119678 0.00358065 0.00513378 0.00376559 -0.0355288 0.0157122 0.0809023 0.14347 0.135351 -0.0869748 0.0794073 0.0897731 -0.184846 -0.257221 0.236411 0.200211 -0.231234 -0.644015 -0.564269 -0.449972 -0.257244 -0.0892497 -0.119131 -0.0685614 0.0396236 0.031356 0.00505849 0.0108326 0.00467718 0.0012426 0.00247936 2.91664e-05 -0.0232997 0.00911244 0.0707141 0.117039 0.111057 -0.000147994 0.0468421 -0.124248 -0.482291 -0.208881 0.0706864 -0.02345 -0.380218 -0.592924 -0.379038 -0.280272 0.037642 -0.00756695 -0.136551 -0.0225842 0.0858641 0.0275215 -0.0023431 0.00192426 0.000312454 0.000490822 0.00344643 7.95466e-05 0.0114508 -0.0144091 0.0740613 0.0583066 0.0747766 0.0724102 -0.0373812 -0.368016 -0.541042 -0.311291 -0.174182 -0.314805 -0.284587 -0.169787 0.00910737 0.0664831 0.147036 0.218098 0.105968 0.0896761 0.066094 0.0164207 0.0109609 0.0145117 0.000765758 0.000456853 0.00127069 0.00451776 0.0154585 -0.0390966 -0.0280555 0.00465513 -0.117455 -0.0230642 -0.0696876 -0.401057 -0.423865 -0.242412 -0.188689 -0.300994 -0.0349196 -0.0330602 -0.097324 -0.22326 0.0173395 0.149718 0.127612 0.179678 0.0850479 0.0246819 0.00347059 -0.00245749 0.00161152 0.00248815 6.31851e-05 0.000681412 0.0117975 -0.0531203 -0.153158 -0.157704 -0.298705 -0.0602 -0.0069864 -0.333296 -0.324642 -0.200628 -0.223912 -0.0547773 0.214477 -0.122411 -0.231688 -0.118447 -0.0123823 0.114285 0.160593 0.227157 0.130949 0.0101444 -0.00986629 -0.0227987 0.00191891 0.00193333 0.00300946 0.00266289 0.00848661 -0.0679359 -0.209968 -0.246904 -0.373577 -0.251868 -0.200378 -0.409402 -0.452571 -0.181635 0.0119978 0.285162 0.107343 -0.336504 -0.409441 -0.0742727 0.0901485 0.0911738 0.127879 0.119524 0.0853342 -0.0238334 -0.0333675 -0.0343796 0.00215786 0.00169456 0.00300518 0.000539946 0.0135551 -0.117243 -0.134844 -0.217256 -0.457748 -0.353072 -0.135839 -0.109439 -0.202502 -0.0794036 0.246777 0.211733 -0.11211 -0.358677 -0.425605 -0.23012 0.0836074 0.140437 0.166946 -0.0220764 -0.0252541 -0.0341264 -0.0647085 0.0038853 0.00193714 0.00290514 0.00245381 -0.00405996 0.0216225 -0.141102 -0.0657184 -0.0744282 -0.228001 -0.118445 0.161844 0.322551 0.0293548 0.0837643 -0.0583447 -0.366275 -0.422966 -0.304473 -0.283396 -0.153704 0.0751349 0.29289 0.0463574 -0.0993945 -0.0438461 -0.0726323 -0.0609482 0.00746507 0.00217662 0.00223198 0.00207059 -0.00599854 0.0123838 -0.0303628 0.0361979 0.0216058 0.0251013 0.124289 0.297509 0.240205 0.0728944 0.0889192 -0.151585 -0.409907 -0.370425 -0.210212 -0.246893 -0.0736332 0.105307 0.1711 -0.0705094 -0.0706323 -0.0302227 -0.0567099 -0.0157707 -0.000192608 0.00067932 0.000640569 0.00130208 0.00552626 0.00618047 -0.0291771 -0.0808183 -0.00440169 -0.000540418 0.0174458 0.214584 0.28642 0.324591 0.191772 -0.0186461 -0.263794 -0.290253 -0.119157 -0.186087 -0.16451 0.0538061 0.0147794 -0.0359687 -0.0525175 -0.000158151 -0.00204978 0.00426941 -0.000916559 0.0014559 0.0019322 0.00208879 -0.00147371 0.00880942 0.0148318 -0.103725 -0.0984597 -0.0410977 -0.0153265 -0.0358285 0.23909 0.319131 0.129075 0.0020798 -0.0407136 -0.12855 -0.0673442 -0.0328152 -0.129569 -0.147836 -0.0995224 -0.086337 -0.0592509 0.0160582 0.0384511 0.00231554 0.00197825 0.0013128 0.000582524 0.00220952 -0.00331984 0.00762989 0.0328741 -0.0421781 -0.110608 -0.138439 -0.123569 -0.14097 0.0225717 0.130107 0.057586 0.05106 0.0946377 0.0867558 0.177639 -0.0640981 -0.282478 -0.214119 -0.0644622 0.0796052 0.0396217 0.0723364 0.0240653 0.00509048 0.0120493 0.00027907 0.00134675 0.000370404 -0.00278341 -0.000450317 0.0172511 0.0181723 -0.0434833 -0.142445 -0.286853 -0.302157 -0.11958 -0.13385 -0.188536 -0.289698 -0.291714 -0.0970809 0.120177 -0.0510739 -0.311669 -0.186639 -0.016879 0.0621989 0.000639297 0.00558953 -0.00302739 0.000230134 0.0081109 0.000267459 0.000311573 0.000711111 -0.00123201 0.00533312 -7.21502e-05 -0.00139961 0.0147756 -0.0556472 -0.170921 -0.111309 -0.119547 -0.0942025 -0.204156 -0.300332 -0.0775506 -0.00131875 0.117573 -0.0808348 -0.318366 -0.146724 0.00587862 0.0508558 0.00856849 -0.00105503 -0.0230678 -0.00890717 0.00156161 0.00124108 0.00111111 0.000938834 0.00125247 0.00855753 0.00744545 -0.0107677 -0.023848 -0.012806 0.0442765 0.132423 0.101482 0.0295308 -0.00409462 0.0214961 -0.02328 0.134375 0.123928 -0.0312404 -0.178813 -0.0865004 -0.00239871 0.0762018 0.0454355 0.00640366 0.000590896 0.00132689 0.000484666 0.00139918 0.00193151 0.00110807 0.00096155 0.000847755 -0.00447957 -0.00809317 -0.0208019 0.019061 0.0446524 0.098154 0.130419 0.136821 0.1627 0.0875073 0.0115082 0.0977673 0.134857 0.0624188 -0.0422308 -0.00206538 0.036877 0.0429664 0.0200922 0.00115857 0.000566926 0.00140888 0.00134682 0.000911493 0.0010686 0.00083004 0.000513158 0.00108818 -0.00362668 -0.00508782 -0.00326212 -0.0145786 -0.0142366 0.0469066 0.063877 0.0355106 0.0440713 0.0322109 0.0773948 0.103113 0.101096 0.0386485 0.0551354 0.0249199 0.0415606 0.0193336 0.00400858 0.000668464 0.00187085 0.00172414 0.000841837 0.00156688 0.000610687 0.00102922 7.61421e-05 0.000570342 0.0015546 -0.0013024 -0.00755318 -0.00262627 0.00372696 0.00414835 0.00123299 -0.0170157 -0.0267692 -0.0241238 0.0418421 0.0543446 0.0250136 0.00176077 -0.00228474 -0.00881602 0.00164208 0.00526042 0.00309339 0.00135222 0.00122222 0.00151665 0.00166256 0.000664207 -0.260356 0.71939 -0.513346 -0.0455699 -0.181945 -0.00619541 -0.00229531 0.572386 0.122446 1.18222 0.0565403 0.0474352 0.00602343 0.0588761 -0.011601 1.85573e-05 0.0399295 -0.0958995 -0.117246 0.0229649 -0.0217535 -0.0629828 -0.0552011 0.0168177 -0.0130654 0.0275479 -0.00482527 -0.144663 -0.138679 -0.0740413 -0.00896696 0.00471647 -0.0973082 -0.0403575 -0.0680804 0.00372194 -0.0352276 -0.018157 0.0026308 -0.0490108 0.00490672 -0.140761 -0.123352 0.0178133 -0.124657 -0.0211408 -0.143954 0.00194698 -0.0361406 -0.0312608 0.014293 0.00992989 0.0316719 0.00836279 -0.0263748 0.011144 0.0137215 0.00664052 0.00138553 0.0225913 -0.114221 0.0438047 0.000523288 0.0411588 -0.00386934 0.0101495 0.0175775 -0.0539421 -0.0893801 0.0252556 -0.0267174 0.0350178 -0.058303 0.00958792 0.0375902 0.0320927 0.00628042 0.0212664 0.0120811 -0.0437605 -0.0396183 -0.0309945 0.0456078 -0.0103989 -0.0424693 -0.186229 -0.039969 -0.0289785 -0.00555485 -0.00989973 3.07106e-05 0.0149116 -0.0129493 -0.0575553 0.00892833 0.0822379 0.0214823 0.00927469 -0.0128667 -0.0172009 0.0379828 0.0600302 0.028528 0.0553068 -0.153884 0.000415103 -0.0309739 -0.000830901 0.00149173 0.00109739 -0.00264526 -0.00053737 -0.00359904 -0.00542827 -0.0095166 -0.0114074 0.0870209 -0.00927051 -0.0124233 -0.0269197 0.00665098 0.0195075 0.0205126 0.0980777 -0.0258917 -0.0145792 0.0348187 0.00662537 -0.0935473 -0.0903686 -0.0176438 0.0475983 0.0775798 0.0360157 -0.122452 -0.0319122 -0.0222189 0.00265169 -0.133345 0.0025625 -0.0126443 -0.0210825 0.0628956 -0.0370807 -0.0536669 -0.0379421 0.0473524 -0.0637022 0.0380343 -0.169367 -0.0122309 -0.0637651 -0.117179 -0.062339 -0.0240793 -0.0510269 0.085542 0.243321 0.337551 -0.0396511 -0.0987111 -0.0903192 -0.0240543 -0.0402611 -0.039759 -0.0993122 -0.0272332 -0.0496373 0.00746922 -0.014713 0.00479621 0.0114047 -0.0855194 -0.00321134 -0.0130524 0.0550209 0.0843547 0.227184 -0.0415022 -0.136343 -0.192023 -0.0875529 -0.0100646 0.129084 0.22424 0.328672 0.269493 0.0218254 -0.137882 -0.0313102 -0.0649912 -0.112267 -0.202538 -0.114426 -0.0721809 -0.0593404 -0.0413928 -0.0247774 0.0120393 0.00254137 -0.0810375 0.265472 0.0809252 0.163781 0.222935 0.0370556 -0.11486 -0.158233 0.116883 0.341868 0.251168 0.177012 0.151471 0.235467 0.272968 0.0928415 -0.0518573 -0.118536 -0.106885 -0.195903 -0.19444 -0.10154 -0.0546098 -0.108839 -0.0851245 -0.0106372 0.00336504 0.021921 0.0720143 0.0671383 0.0116043 0.12078 0.102086 -0.159799 -0.0201646 0.0290656 0.251599 0.211532 0.19409 0.232682 -0.22279 0.13882 0.261962 0.072097 0.0723989 -0.0632726 -0.043115 -0.0632896 -0.222487 -0.165866 -0.00981227 -0.00267274 -0.328329 -0.109083 -0.134797 0.00685801 0.0277145 0.0399016 0.039187 0.0547219 0.0537126 0.0276052 -0.0357436 0.0350881 0.0968221 0.170264 0.0499056 0.0341594 0.116077 0.00257422 0.207164 0.309885 0.217356 0.0741787 0.0582729 0.0301037 -0.00215023 0.0249218 -0.00805364 0.00199829 0.00319355 0.00451912 0.00352339 0.000948016 0.00650447 0.0421724 0.0194545 0.0148607 0.161199 0.0363532 -0.2082 -0.0180222 -0.0169247 -0.0694539 -0.0888958 0.0640862 0.287451 0.184638 0.296983 0.269308 0.151258 0.0739779 0.0952739 0.0840758 0.0623468 0.0849582 -0.00559826 -4.20118e-05 0 0.00395524 0.00369984 -0.00228513 0.0034029 0.0480456 -0.0210991 0.0021684 0.251783 -0.0184504 0.0027971 -0.0712347 0.0579629 -0.0103796 0.0720333 0.0174149 0.223634 0.279691 0.267255 0.115426 0.0191613 0.0321305 0.0162085 0.105887 0.100743 0.0347078 -0.0019859 0.00283787 0.00270444 0.000357674 0.00375001 -0.00442939 0.000252586 0.0332534 -0.0146908 0.0026226 0.21372 0.027635 -0.0777892 -0.0454092 0.0927419 0.175894 0.0621343 0.0524544 0.130866 0.152144 0.115562 -0.0188077 -0.022838 0.03235 0.0702243 0.149607 0.122103 0.00173895 -0.00132277 0.00245817 0.00274112 0.00344486 0.00369552 -0.00180729 -0.00324818 0.0495374 0.00561527 0.0310092 0.144356 0.139545 -0.0504547 0.0873205 0.306972 0.260833 -0.0198863 -0.0697994 -0.0288275 0.0596138 -0.0771232 -0.0768532 -0.0363875 0.0357469 0.111498 0.176699 0.0397509 -0.00306097 0.000784781 0.00127708 0.00049763 0.00141888 0.00147338 -0.00468617 -0.0126226 0.0738176 0.07246 0.0305951 -0.0140539 0.0597153 0.118387 0.0690615 0.23628 0.167597 0.198276 0.155069 0.00149031 0.00435355 -0.00912591 0.044514 0.0298497 0.0713581 0.145702 0.149603 0.0218517 -0.00334916 0.00227294 0.00105582 0.0004 0.00241537 0.00255213 0.000286409 -0.00509889 0.0296815 0.0994004 0.0881827 0.0642384 -0.0684562 -0.0441846 -0.0382742 0.151126 0.291626 0.316062 0.277526 0.0685884 0.00180533 -0.0680067 0.0213511 0.0219827 0.107425 0.14052 0.0512993 0.0111284 -0.0103046 0.00129636 0.0024252 0.00119247 0.0024552 0.000634519 -0.00311554 0.00748275 0.0134461 0.066621 0.0878098 0.135857 0.0459708 -0.045117 0.0729431 0.237732 0.178133 0.167388 0.234078 0.0975238 -0.0859174 -0.0770713 -0.0286941 0.0218207 0.125587 0.137629 0.0207757 0.0119217 -0.0100277 -0.00101101 0.00291537 0.000296443 1.07952e-05 0.00301732 0.00550746 0.0228506 -0.0320508 0.0339822 0.0501814 0.134907 0.0841403 0.160358 0.256979 0.210574 0.010076 0.048728 0.163828 0.0434507 0.0166737 -0.0572717 0.0212277 0.0289779 0.129476 0.0911314 0.0174949 -0.00886846 -0.00524458 -0.000927907 0.000215419 0.00258293 0.0018528 0.0023855 0.0208273 0.0202601 -0.0598219 -0.0195667 0.0546061 0.0625573 0.0712773 0.350608 0.284078 0.0501717 -0.0413887 0.100702 0.163395 0.0402277 0.118446 0.0567604 0.0293633 0.107065 0.0192476 0.00638626 -0.00166281 -0.0257097 -0.00160342 0.00160329 0.000480689 0.000800712 0.00182561 0.00268105 0.00251926 0.0125174 -0.0333967 -0.034094 0.0400901 0.0708154 0.21469 0.366169 0.161938 -0.0472788 0.0293837 0.16761 0.19617 0.100794 0.194704 0.000406888 0.0616902 0.0493067 -0.00111174 -0.0172929 -0.00268025 -0.0149901 -0.00153408 0.00174939 0.0016972 0.00040678 0.00231255 0.00421907 0.000844505 0.00621949 -0.0405576 -0.0930527 0.04115 0.0469504 0.131754 0.260392 -0.013931 -0.0915514 0.108525 0.315633 0.241288 0.125028 0.214214 0.0314778 -0.00361052 0.0570463 0.0106961 0.00294391 -0.00340765 -0.01592 0.000274502 0.000659666 0.00116694 0.00179612 0.00213251 0.00508652 0.0138042 0.005859 -0.0121324 -0.151546 -0.0536661 0.0894398 0.0339532 0.0594418 -0.0258493 -0.0756724 0.23846 0.241264 0.135842 0.0866042 0.159719 -0.0626375 0.0197125 0.0157558 -0.0245907 -0.0103868 -0.0177636 -0.0119561 0.00024596 0.00116259 0.000418605 0.000835913 0.000927281 0.0082023 0.0151893 -0.00228329 -0.010069 -0.0884166 -0.125694 0.00722165 -0.01406 -0.0173415 0.0788939 0.215195 0.264275 0.0873641 0.0020145 0.0479792 0.11507 -0.0502483 0.0658801 0.0147307 -0.0177955 -0.0147712 -0.0224718 -0.00243831 0.000589419 0.000256369 0.00120357 0.00164688 0.0016 0.00303184 0.0132361 0.00589582 -0.00236673 -0.00635646 -0.0720459 -0.155595 -0.0698244 -0.0179439 0.117435 0.2289 0.185143 0.0424452 0.0105607 0.134033 0.152025 0.0745768 0.0924048 -0.0297802 -0.0415126 -0.00704283 0.00573 0.00408099 -0.00017637 0.000138676 0.000256776 0.000512821 0.000682788 0.00108179 0.00206343 -0.00153353 -0.00297641 0.00724454 0.00496551 -0.00905934 -0.0177011 0.0853051 0.147885 0.112752 0.0206836 -0.0283979 0.0449968 0.104676 0.188389 0.0248494 -0.0108358 -0.027677 -0.016999 0.00438778 0.0150499 0.000960496 0.000858911 0.0013492 0.000534979 0.00069863 0.00176471 0.000892562 0.000133893 0.00173432 0.00527414 0.00966144 0.0167286 -0.00995044 -0.0441546 -0.035165 0.0361132 0.0275551 0.0173355 0.0194384 0.0541793 0.0597674 0.224888 0.00206138 -0.0431885 -0.0446248 -0.016209 -0.00170167 -0.00530273 -0.00234065 0.000104733 0.00157639 0.000475561 0.00154354 0.000118577 0.00114474 0.00193134 0.00199599 0.00152469 0.00273074 0.00462658 -0.0149588 -0.0547749 -0.0332913 0.0253083 0.000717518 -0.0225552 0.0121238 0.00751528 -0.00683515 0.189344 0.0430605 -0.0104824 -0.0269965 -0.0209926 0.00082573 0.00131609 0.00172627 0.00111111 0.000420918 0.00168153 0.000343511 0.000419314 0.000266497 0.000988593 0.000833682 0.00169645 0.00143948 0.00101295 0.00118922 0.00196973 -4.50835e-06 0.00595994 0.0113464 0.0189168 0.00363497 -0.00701668 -0.00539247 -0.000542275 0.00059801 7.26203e-05 0.00167253 0.00118221 0.000616765 0.000873416 0.000222222 0.00122072 0.00166256 0.000885609 0.00510119 0.0203601 0.0720678 -0.00307853 0.056157 0.0112592 -0.0943547 0.0510608 0.0300644 0.0209831 -0.0150026 0.0110175 -0.0132781 0.0343105 0.0173499 0.0287613 0.0112472 0.0286866 0.0257748 0.0176204 0.00741786 0.0074414 0.0251295 -0.00615704 0.0243354 0.010792 0.00233482 0.00108093 0.0438804 0.00781052 0.00799119 0.0201567 0.00129931 0.031036 -0.000774502 0.0117737 -0.000435134 0.00813988 0.00922401 0.0293666 0.00552268 0.0215572 0.0061743 0.00525263 0.0109283 -0.00369708 0.0264616 0.0171482 0.0278262 0.0153341 0.00426821 0.0178414 0.000496112 0.00591178 0.00380033 -0.000401744 0.00843389 0.00422046 0.00471058 0.0100426 0.0224673 0.00166176 0.00382548 -0.000942912 -0.0042241 0.00412735 -0.0180888 -0.0244803 -0.0402116 -0.043697 -0.0726575 -0.0821726 -0.154318 -0.229659 -0.158226 -0.0820156 -0.0564972 -0.0587069 -0.00230253 0.00058523 0.000511582 0.0132135 0.00118521 0.0115355 0.00895734 0.008649 -0.00224934 0.00449177 0.0113384 0.000931751 -0.000947399 -0.00229531 0.00210805 -0.00451587 -0.0384713 -0.0872443 -0.0277246 -0.0691524 -0.0612874 -0.0816273 -0.256528 -0.279897 -0.301296 -0.396499 -0.336707 -0.261067 -0.100553 -0.0115501 -0.00133606 0.0055167 0.010238 0.00618192 0.00665401 0.00756088 0.00539615 0.0107011 0.00971292 0.0138116 0.00866976 -0.0160317 0.0152205 0.0417437 0.00812186 0.0335508 0.0757992 0.030034 0.035164 -0.0770422 -0.169758 -0.191429 -0.189738 -0.299761 -0.310852 -0.202768 -0.0796419 -0.0072704 0.0273006 0.00902727 0.0122594 0.000789644 0.00232475 0.00954336 0.00521267 0.000965885 0.0129833 0.034773 -0.00758414 -0.0223125 0.00898961 0.0391426 -0.0681433 0.0260765 -0.0266585 -0.0583876 0.0580483 -0.0577158 -0.156013 -0.117316 -0.140402 -0.225745 -0.125658 -0.0658964 -0.055296 -0.00549718 0.0146288 0.00445274 0.00988907 0.00530537 0.00587141 0.00933764 0.00239352 0.00723374 0.014007 0.0289872 -0.0191307 -0.0437517 0.0200804 -0.0697651 -0.00646743 0.0906143 0.00804222 0.127888 0.166632 -0.00640908 0.036727 0.106757 0.112714 0.123219 -0.00209923 -0.0413493 -0.0128503 -0.0202738 -0.0186637 0.00840245 0.0169382 0.0367439 0.003358 0.0112411 0.00500507 0.00147326 -0.046965 -0.0784214 -0.0211447 0.0784712 0.086395 0.0844661 0.260763 0.185065 0.221838 0.324342 0.224291 0.204572 0.127796 0.0157249 0.211164 0.447814 0.181234 0.0667362 0.0724498 0.0196977 -0.0180749 0.0223751 0.0213718 0.0189117 0.00980111 -0.000324706 0.00717399 0.0169304 -0.0529122 -0.0653953 0.0398129 0.116508 0.0761061 0.146507 0.347976 0.184419 0.178857 -0.00786645 -0.0949966 0.04346 0.153443 0.0426565 0.273164 0.286589 0.26257 0.182276 0.0886053 0.0404514 0.0480665 0.0465253 0.0122656 0.00410559 0.00965299 0.0044088 0.00846161 0.0456889 -0.00830602 -0.0387337 0.118438 0.0760733 0.00315853 0.153146 0.106244 0.0725534 -0.197617 -0.280203 -0.281382 -0.104703 0.0399112 0.193423 0.250906 0.234844 0.227806 0.126421 0.0639464 0.00852231 0.0158319 0.0246147 0.00446015 0.000880498 0.0033871 0.00236833 0.00516445 0.0547419 0.016363 0.0496747 0.0654513 0.00479495 -0.0311457 -0.0181203 0.0856979 -0.184658 -0.224719 -0.239318 -0.112335 0.0090103 0.0499192 0.0335264 0.0888619 0.152766 0.183172 0.170331 0.166277 0.045139 0.0145445 0.018711 0.00504141 0.00468229 0.00221893 0.00330369 0.00536037 0.0211317 -0.0113804 -0.00467047 0.0232637 -0.019041 -0.151746 -0.0497972 -0.0781277 -0.159089 -0.292747 -0.382475 -0.0819742 0.0890378 0.00394444 0.0566609 0.121605 0.114553 0.172723 0.120582 0.130379 -0.000300665 -0.0143942 0.0243181 0.0318419 0.00306711 0.00213229 0.00258822 0.00344499 -0.010403 -0.023958 0.0260219 -0.0487325 -0.160108 -0.24709 -0.231099 -0.414555 -0.376208 -0.440405 -0.435091 -0.0708472 -0.108683 -0.212323 -0.0289894 -0.0382692 -0.0667236 -0.0611259 -0.0688704 -0.0301627 -0.0810638 -0.0432449 0.0184736 0.0227069 0.00268391 0.00296954 0.00289849 0.0016596 -0.011827 -0.029066 -0.0808593 -0.0340465 -0.0688318 -0.122663 -0.315438 -0.378803 -0.451792 -0.440622 -0.160721 -0.0844189 -0.10361 -0.113601 0.0336379 -0.0118614 -0.140871 -0.242914 -0.166999 -0.17939 -0.119442 -0.0534915 0.00631586 0.00571871 0.00242005 0.00120853 0.00208641 0.00270826 -0.0147722 -0.0418414 -0.0560376 -0.0690448 -0.0688417 -0.123107 -0.403261 -0.286273 -0.303888 -0.220166 0.0223975 -0.045036 -0.164599 -0.173718 0.0636341 0.0971227 0.0153848 -0.283547 -0.255518 -0.284371 -0.206183 -0.0376845 0.00188688 0.00893307 0.00061861 0.000133333 0.00145688 0.000307476 -0.0172165 -0.0249606 -0.0187529 -0.0705811 -0.14713 -0.171008 -0.331384 -0.187638 -0.143689 -0.0886756 -0.0244242 -0.2712 -0.417908 -0.217563 0.141025 0.0880054 -0.147044 -0.269875 -0.321711 -0.311745 -0.169838 -0.0476076 -0.00504802 0.00805062 0.00292899 0.00150628 3.40038e-05 0.00178053 0.00307826 0.0071606 -0.086333 -0.108093 -0.0898219 -0.197544 -0.320598 -0.260787 -0.211391 -0.117844 -0.123639 -0.16417 -0.0559587 0.0347981 0.108936 0.11485 -0.0936092 -0.258838 -0.299938 -0.166337 -0.102499 -0.0559382 -0.0163961 0.00439989 0.00147803 0.00225296 0.000369973 -0.000863935 0.0405598 0.0210955 -0.0521089 -0.0836474 -0.0816679 -0.297519 -0.294461 -0.227776 -0.145332 -0.208006 -0.124514 0.105716 0.152489 0.0806474 -0.0371611 0.100074 -0.0599278 -0.206146 -0.0875314 -0.0388232 -0.0780154 -0.0179225 0.0267143 0.0314978 0.0160147 0.00242591 0.0021887 -0.00499238 0.0488067 0.0235521 0.0314643 0.0502851 -0.0697264 -0.332137 -0.458648 -0.242897 -0.204086 -0.230594 -0.0370023 0.0636563 0.0309551 -0.169845 -0.257419 -0.1836 -0.152735 -0.157544 0.000480498 -0.0302024 -0.0908388 -0.0214265 0.00827099 0.00760537 0.00646906 0.00240214 0.0023482 0.000647022 0.0686265 0.0613402 0.0471042 0.104767 -0.0167475 -0.278817 -0.428953 -0.365319 -0.371522 -0.292371 -0.225825 -0.14932 -0.0690247 -0.271362 -0.402498 -0.367123 -0.17274 -0.0574158 0.0614902 0.0165063 0.0143645 0.00620822 0.00242272 0.0023162 0.0013399 0.000661017 0.000192268 0.000555889 0.0673819 0.0769747 0.0537678 0.148914 -0.00182209 -0.179754 -0.237507 -0.348617 -0.334238 -0.38903 -0.239666 -0.155647 -0.247076 -0.397187 -0.377566 -0.356999 -0.136164 -0.0199272 0.05281 0.0965475 0.0583967 0.0457547 0.00563018 0.0137465 0 0.00101942 0.00126454 -0.000224386 0.0264702 0.00883979 0.0316746 0.076162 0.0728922 -0.0162073 -0.0719028 -0.190959 -0.19305 -0.261616 -0.197305 -0.318071 -0.394705 -0.353579 -0.275139 -0.258332 -0.078938 0.0548286 0.0770315 0.0796319 0.105581 0.0423431 0.0112654 0.0256877 0.00223256 0.00139319 0.00134654 0.000664392 0.00457109 0.0105082 0.0231435 0.0614165 0.0301145 0.0137351 0.0480661 0.103145 0.0238901 0.140052 0.034785 -0.18069 -0.253878 -0.140895 -0.143981 -0.155287 -0.00226666 0.0729803 0.0231269 0.0336775 0.0269013 0.00664198 0.00852066 0.0150624 0.00013373 0.00137982 0.0012 0.000309285 0.000577548 -0.00272398 0.00197319 0.0133086 -0.0268638 -0.0549076 -0.0285515 0.133347 0.118918 0.291231 0.152436 -0.0325792 -0.0851107 0.0175235 -0.0532279 -0.0434812 -0.0455524 0.00693641 -0.00818905 -0.00767069 -0.0420705 0.0052798 0.00250332 0.000638727 0.00136947 0.00149573 0.000938834 0.000256383 -0.00351475 -0.0166104 -0.0188909 0.0189237 0.0657018 0.0339922 -0.0261981 -0.0944951 0.0699169 0.179043 -0.0500188 -0.199057 -0.176842 -0.174396 -0.136325 -0.0831207 -0.120865 -0.0993559 -0.106727 -0.055067 -0.0161082 0.00108884 -0.000166392 0.00143431 0.000864198 0.00180822 0.00123119 0.00133888 0.000505129 -0.0129655 -0.0303131 -0.00564934 0.0348086 0.0302849 -0.0395083 -0.0317404 0.22314 0.242628 0.124155 -0.0612671 -0.0780815 0.0309007 0.00621239 0.00882248 -0.00415215 0.00703888 0.0288034 0.00341053 0.00181873 0.000678804 0.00124039 0.00130201 0.00146631 0.00170185 0 0.00114474 0.000711182 -0.000293968 -0.0166539 -0.02917 -0.0333681 0.0107416 -0.0804141 -0.125075 -0.0318326 0.0767266 0.0775605 0.00390099 0.0259932 0.0607337 0.0312595 0.0187756 0.0146611 0.00453383 0.00394939 0.00207002 0.000249485 0.0015357 0.00183908 0.000191327 0.000267516 0.00187023 0.0015629 0.000380711 0.00121673 0.00137061 0.00343759 7.40986e-05 -0.00435763 -8.30873e-05 0.000488904 0.000649458 0.0144818 0.0190353 0.00371743 -0.00253299 0.000812127 0.00116722 0.00230122 0.00804657 0.00506395 -1.12671e-05 0.00187334 0.00204859 0.00129903 0.000740741 3.69914e-05 0.00173645 0.000885609 0.0920706 0.165092 -0.241789 0.0586763 -0.217135 -0.165107 -0.02483 -0.0740587 0.111023 0.94526 0.0929161 0.0661134 0.0832931 -0.00438991 0.0090179 0.0617366 0.0478645 0.0336253 -0.113923 0.00906063 -0.0197748 -0.0272406 -0.0334055 0.0671528 0.00426389 0.0261059 -0.0321298 0.147818 -0.149448 0.0446478 0.00419488 0.0221394 0.0201851 -0.0701939 -0.0164205 -0.0146185 0.0417151 -0.0404527 0.0227032 -0.102157 0.0348667 -0.144541 -0.0940733 0.0230693 -0.0697147 -0.0121047 -0.0480579 0.00300538 -0.069851 -0.0465079 0.00258277 -0.00815081 0.0374354 0.0355696 0.0410422 0.0382044 0.00387139 0.0311596 0.0194343 0.00834216 -0.00883359 0.0190901 -0.00254401 0.0185118 -0.00791492 0.0131801 0.0228414 -0.13842 -0.111519 0.0873309 0.0279742 0.0189616 -0.0317278 -0.0687235 0.0493471 0.065539 0.0350446 0.0190096 0.0201845 -0.029923 -0.00310725 0.0149808 0.012372 -0.0487813 0.00368981 -0.103055 0.0174044 -0.0447513 -0.013885 0.0126628 -0.0162633 0.0047858 -0.022577 -0.0365024 0.0392947 0.155076 0.166149 0.106405 0.0209561 -0.0203084 -0.0166851 -0.00313164 0.00143604 0.0567781 0.00847276 0.016147 -0.074476 -0.00553952 0.00131478 -0.00972288 0.00379266 -0.00594533 -0.00882887 -0.0121366 -0.0135867 -0.053069 -0.0774875 0.00490813 -0.0202311 -0.0345128 -0.025802 0.0216583 0.0225354 0.146159 0.191858 0.161677 0.148797 0.0232591 -0.0454848 -0.0413297 -0.0284989 -0.141227 0.0185003 0.0199774 0.00382453 0.0156993 -0.00134151 0.00497299 -0.0720137 0.00856524 -0.005963 -0.050771 -0.0497 0.0507739 -0.0271931 -0.0382921 0.014705 -0.0109674 0.0704331 -0.174001 0.138004 0.369078 0.450603 0.243488 0.165808 -0.0353758 0.119694 0.150455 0.0837882 0.0727113 0.0871864 -0.028935 0.047491 0.0511784 0.0239121 -0.0489554 -0.0599153 -0.0134273 0.00639839 -0.0362392 -0.00133344 -0.00363466 -0.0592671 -0.000873597 -0.0413557 0.142051 0.17446 0.364204 0.333603 0.609807 0.512768 0.523466 0.564279 0.731996 0.719035 0.425938 0.119259 0.0999381 0.3706 0.186574 0.0927833 0.215888 0.0803527 0.0235529 -0.189656 -0.0431315 -0.0201234 -0.0455467 -0.00379279 0.020559 -0.175391 -0.0562674 -0.385031 -0.377391 -0.26219 -0.446292 -0.195487 0.244855 0.644613 0.900146 0.862009 0.789393 0.57807 0.431396 0.00197706 -0.0716609 -0.0436761 -0.149837 0.132934 0.241683 0.311978 0.134429 -0.0699878 0.0174625 -0.0467491 -0.0197828 -0.0128053 -0.146127 -0.022811 0.0116887 -0.411664 -0.412603 -0.759177 -0.72589 -0.359849 -0.330804 -0.318667 -0.371146 -0.0993001 -0.339868 -0.430633 -0.211699 -0.568576 0.109453 0.153462 -0.443181 0.0894638 0.242822 0.0669784 -0.0236117 0.0104454 0.00239014 -0.120663 -0.053226 -0.0390095 -0.275104 -0.31783 -0.0471394 -0.227473 -0.0249365 -0.491169 -0.310857 0.178746 -0.0382331 -0.764657 -0.872513 -0.849029 -0.492062 -0.667823 -0.535176 -0.151189 0.142118 0.109243 -0.31818 -0.0208036 0.01326 -0.0104539 0.0550805 0.00787687 4.06797e-06 0.00309677 -0.000338444 -0.0879266 -0.248808 -0.292032 -0.124734 -0.0836509 0.0266065 0.0530706 0.302393 0.0348586 -0.194028 -0.501211 -0.627009 -0.382998 -0.029839 -0.144954 -0.436955 -0.574764 -0.206334 -0.199842 -0.102887 0.0945507 -0.0970143 -0.186525 0.0325754 0.0146676 0.0104723 0.00035503 0.00158979 -0.083088 -0.186957 -0.0768193 0.083189 0.0958477 0.00379291 0.28196 0.411857 -0.061078 -0.0219358 -0.258699 -0.142159 0.288146 0.670669 0.456856 -0.430088 -0.734141 -0.146791 -0.21524 0.191809 0.286199 0.10407 -0.0225643 0.101279 0.0283407 0.0102418 0.00376477 -0.00134822 -0.00430788 0.0650875 0.187938 0.231703 0.437358 0.274921 0.320324 0.560618 0.464396 0.580711 0.911229 1.30023 1.4385 1.24388 0.68593 -0.0169832 -0.345242 0.348663 0.0523744 0.226257 0.229392 0.235445 -0.0168162 0.0447333 0.0198542 0.00332634 0.00335025 0.000499059 0.000398176 0.175738 0.258389 0.364727 0.644824 0.597466 0.451973 0.319107 0.685497 1.28361 1.72757 1.79049 1.63392 1.00131 0.282064 0.157176 0.204711 0.594704 0.312639 0.381843 0.376712 0.173261 0.0529593 0.00925603 0.000549741 0.00232916 0.000853081 0.0023195 -0.000180946 0.166638 0.204216 0.288743 0.822101 0.564417 0.516042 0.385024 0.882892 1.42762 1.60255 1.66878 1.28606 0.760277 0.260504 -0.0573239 0.262214 0.11717 0.209756 0.232626 0.157443 0.19208 0.068886 -0.0192539 0.000241725 0.00304133 0.00126667 0.00185442 -0.000666833 0.140438 0.157655 0.20543 0.555585 0.533665 0.635925 0.471895 0.659383 1.12676 1.30655 1.31527 0.87501 0.39281 0.255415 -0.12418 0.314677 0.118249 -0.047032 -0.115685 -0.154118 0.168331 0.135179 0.000845334 0.00499428 0.00119604 0.00269874 0.000878896 -0.00475232 0.0708375 0.171299 0.200705 0.194029 0.443022 0.464015 0.403705 0.577759 0.70163 1.00492 0.941798 0.541179 -0.0463236 0.091124 0.16795 0.388645 0.169687 -0.157903 -0.232536 -0.00971761 0.286028 0.141049 0.00225876 -0.000287663 0.0015092 0.00160079 0.00221709 0.00570545 0.0016764 0.0721622 0.0714277 0.122545 0.419579 0.560313 0.464571 0.58861 0.984633 1.12881 0.947766 0.217606 -0.0152393 -0.0027163 0.474181 0.602687 0.567829 0.245248 -0.021419 0.1975 0.160029 0.0184962 -0.0155502 -0.00166386 1.82209e-05 0.00190478 0.00274706 -0.00281432 0.0137423 0.0252171 -0.143124 -0.202663 0.160346 0.41322 0.511641 0.631132 0.760491 0.741229 0.252188 -0.0573743 -0.15492 0.384591 0.315317 0.776027 0.849813 0.470686 0.230954 0.253822 0.0818319 -0.031087 -0.0125685 0.0002742 0.00145056 0.00149466 0.00143944 -0.0285765 0.025425 0.00201889 -0.064835 -0.209903 0.00891374 0.218305 0.0962782 0.0615799 0.157785 0.0380214 0.0792026 0.0901428 0.11636 0.321142 0.403684 0.802472 0.875112 0.718715 0.444136 0.419621 0.132905 0.0231848 -0.00176555 0.00286202 0.00239122 0.00213559 0.000686921 0.00603799 0.0260164 0.04122 0.0246894 0.0204683 0.243578 0.38107 0.336678 0.173552 0.182227 0.197506 0.377588 0.199101 0.243765 0.0779776 0.553105 1.00651 0.947773 0.905781 0.496502 0.370321 0.206089 0.0497222 0.00192086 0.00835881 0.00160454 0.0018932 0.000698662 0.0167536 0.00700886 0.158623 0.0859905 0.183183 0.38671 0.53137 0.327394 0.119792 -0.132926 0.198513 0.363556 0.179895 0.0936027 0.0981959 0.717678 0.827041 0.802203 0.689789 0.379966 0.229226 0.09449 -0.00306936 0.00850432 0.0119089 0.000930233 0.000325077 8.63835e-05 0.00822808 -0.00197288 0.189154 0.153464 0.0432943 0.242691 0.249567 0.145547 -0.143603 -0.18718 0.395031 0.335072 -0.0353293 -0.257619 0.109347 0.493783 0.71799 0.58573 0.501867 0.340735 0.188611 0.0555559 0.0056344 0.00541181 0.00694984 0.00173848 0.00102374 0.000888889 0.000872684 -0.00832834 0.109498 0.10115 0.135312 0.114584 0.0662522 -0.179867 -0.557257 -0.260928 0.231182 0.249163 -0.185231 -0.285234 -0.161262 0.224579 0.523069 0.385341 0.500103 0.454948 0.217743 0.052553 0.00128567 0.00266494 0.0018264 0.0010699 0.00149573 0.000512091 0.00118278 -0.00921391 0.0181088 0.0125244 0.0802161 0.0381518 -0.366874 -0.37444 -0.472518 0.167421 0.397679 0.0130179 -0.0820331 -0.314143 -0.144062 0.0227728 0.0416612 0.0113474 0.340132 0.338344 0.0976511 0.0374499 0.000970241 0.000432556 0.00121422 0.0018107 0.00106849 0.0019699 0.000320295 -0.00027254 0.00144017 0.106643 0.0942796 -0.150666 -0.591749 -0.559039 -0.240978 -0.111607 -0.0541171 -0.524469 -0.177836 -0.495723 -0.601761 -0.24003 -0.213293 -0.191409 0.112793 0.273542 0.0836683 0.00442688 0.00155211 0.000749466 0.000837626 0.00110964 0.00091029 0.000158103 0.000355263 0.00119328 0.00986411 0.106928 0.149222 -0.111602 -0.391371 -0.416555 -0.160764 -0.126109 -0.448331 -0.654399 -0.530645 -0.374423 -0.560771 -0.38033 -0.332928 -0.158686 0.105893 0.200139 0.0797283 0.00269376 0.000663285 0.000766284 0.000382653 0.00179618 0.00118321 0.00121982 0.000228426 0.00148289 0.00127156 -0.00521343 -0.0113243 -0.0194528 -0.0156017 -0.00101095 -0.00442426 -0.0886628 -0.130414 -0.149095 -0.129677 -0.105788 -0.119351 -0.02157 -0.0949772 -0.0474972 0.105768 0.115433 0.101529 0.00267757 0.000222222 0.000110974 0.000517241 0.00177122 -0.4249 1.04379 -0.854923 -0.235105 -0.286259 0.277784 -0.0661356 0.92803 0.321491 1.7753 0.0845765 0.0628439 -0.00952144 -0.0318186 0.004957 -0.0450137 0.060345 -0.120105 -0.207801 0.0161164 -0.0379229 -0.110327 -0.0650406 0.0508099 0.0370987 0.0304927 -0.0447454 -0.237284 -0.206335 -0.0984455 -0.00759657 0.00603226 -0.174502 -0.175754 -0.123137 -0.00248255 -0.0588662 -0.060559 0.0186189 -0.0998454 0.00839751 -0.312304 -0.267788 0.00885348 -0.27644 -0.027475 -0.253826 -0.0493632 -0.0806668 -0.0748439 0.019214 -0.00903416 0.0560459 0.0389659 -0.0473672 0.0383337 -0.000501134 0.0216497 0.0158268 0.041534 -0.219496 -0.0202077 -0.00883472 0.17362 -0.00638131 0.00387738 0.0017867 -0.159638 -0.22181 -0.00533659 -0.080124 0.00884132 -0.0742166 -0.121384 0.039725 0.0634785 0.0654403 0.0207748 0.00967959 -0.178934 -0.118382 -0.0969706 0.0964919 -0.0457281 -0.0466826 -0.310875 -0.0459988 -0.0512861 -0.0122181 -0.0130073 -0.0564909 0.0184026 -0.0851021 -0.177543 -0.0460189 0.107607 -0.0548794 -0.0731729 -0.00949132 0.0575976 0.0892796 0.101743 -0.0033288 0.10505 -0.260621 0.000144487 -0.089416 0.00010534 0.00910247 0.00225734 0.0061633 -0.0150228 -0.00940282 -0.00684796 -0.0104261 -0.0414094 -0.0458616 0.0106028 -0.0136965 0.00160265 -0.048757 -0.0864464 -0.168413 0.00303879 -0.245966 -0.186474 -0.133262 0.076122 0.0404485 0.0199202 -0.00551995 -0.0159325 0.19372 0.139063 -0.168835 0.00736514 -0.0399329 0.0240296 -0.266415 0.000843151 -0.00481809 -0.0572601 0.0774296 -0.167345 -0.120946 -0.0861176 0.0565645 -0.0469739 0.0478608 -0.320302 0.0516275 -0.0618276 -0.149247 -0.0461694 0.115793 0.0163813 0.0260913 -0.222519 -0.0847136 0.116516 0.237515 0.126377 0.273194 0.0827471 -0.0824056 -0.205529 -0.0633388 -0.21491 0.00580385 -0.0323293 -0.000485231 -0.00803621 -0.152939 -0.0564272 0.00477426 0.114649 -0.071046 0.346705 0.086632 0.0688712 -0.0167094 0.0388738 -0.108272 0.0692972 0.192063 -0.00368495 -0.0396462 0.0744063 0.179956 0.183598 0.235939 0.204913 0.00778768 -0.0628913 -0.117783 -0.17229 -0.071978 -0.0578252 -0.00634921 -0.0888234 -0.249982 0.180366 0.00805477 0.180028 0.0490737 -0.0803254 0.0999702 0.200621 0.447909 0.269313 0.14995 0.0968101 0.0680659 -0.0363979 0.0897384 0.110776 0.307672 0.0297625 0.149071 0.0929674 -0.0947972 0.0919651 -0.051457 -0.165589 -0.137696 -0.124929 -0.00470894 -0.000677054 -0.0338592 -0.123828 -0.106704 0.029617 0.00126237 -0.281509 -0.0263453 -0.138589 0.409277 0.222915 0.145539 0.11359 -0.207291 0.100888 0.0215511 -0.0925475 0.16978 0.0896537 -0.0287916 -0.101354 -0.323456 -0.166411 -0.0100443 0.00193223 -0.520874 -0.206809 -0.191611 0.0203555 -0.0133365 -0.0524253 -0.107355 -0.0221024 -0.0202831 -0.0894862 -0.144356 0.0412873 0.415257 0.286952 0.0596827 0.208058 0.340989 -0.0360512 -0.120065 -0.219017 0.0952851 0.0499718 -0.1063 -0.106992 -0.0131537 -0.00339858 -0.00323347 0.00625338 0.00290323 0.00066039 0.00405834 0.0393448 -0.0143955 -0.0789564 -0.000472953 0.0089007 0.00547867 -0.170858 -0.137479 0.242942 0.285509 0.100942 0.0633871 0.2648 0.136451 -0.0862433 -0.258382 -0.298053 0.0563236 -0.101546 -0.266649 -0.270531 -0.173162 0.00732307 0.012567 -0.000185197 0.00177515 0.000861339 0.0035426 0.0268444 -0.00544592 -0.0424738 0.0948508 0.0278207 -0.0337175 -0.268413 0.0252143 0.296217 0.175383 -0.0572717 0.185632 0.30691 0.359259 0.0990197 -0.143121 -0.328367 -0.144307 -0.260957 -0.295958 -0.25458 -0.121001 0.00460641 0.00882684 0.00266384 0.000655099 -6.55532e-05 -0.000152667 -0.0028061 0.015191 -0.00635471 0.119671 0.0946888 -0.000623034 0.036287 0.266843 0.312299 0.0224488 0.120957 0.339842 0.659664 0.611971 0.206251 -0.0274907 -0.216681 -0.0388968 -0.166231 -0.267416 -0.17522 -0.0832833 -0.000810418 -0.000320499 0.00142267 0.00159898 -0.000255482 -0.000144865 -0.00328874 0.0266578 0.117982 0.177251 0.174754 0.185202 0.508375 0.636748 0.413589 0.130841 0.227784 0.272688 0.415645 0.364363 0.388374 0.327495 0.0449682 0.101852 -0.0182885 -0.0932764 -0.0995737 -0.0755565 -0.0175676 -0.00292749 -0.000556884 0.000853081 0.00282369 0.000987194 0.000724252 0.0255164 0.166909 0.198244 0.202742 0.365361 0.645223 0.776909 0.232505 0.198125 0.219275 0.332796 0.257472 0.180276 0.488671 0.357748 0.314991 0.240308 0.204484 -0.000536898 -0.0615918 -0.0463212 -0.013674 -0.0060636 0.000144818 0.000466667 0.00043681 0.00459908 -0.000118117 0.0333722 0.102183 0.19562 -0.0171041 0.0609872 0.441756 0.417104 0.126391 0.0630653 0.229787 0.327781 0.214481 0.0764333 0.546508 0.400529 0.377239 0.397183 0.239211 0.089703 -0.0862115 -0.0246114 -0.00871314 -0.00792199 -0.000276332 0.000251046 0.00290114 0.00291197 -0.00469827 0.0349459 0.0699922 0.0773082 0.0525792 -0.12642 -0.148681 -0.0275287 0.0835454 0.26832 0.41943 0.410549 0.213128 0.0370444 0.578135 0.562527 0.297611 0.458982 0.288294 0.059646 -0.0345806 -0.0299525 -0.0553498 -0.0203934 0.00152977 0.000592885 0.00126253 0.000679867 -0.0106702 0.0177203 0.111323 -0.0382949 0.0308113 -0.135245 -0.167511 -0.173372 0.011777 0.365547 0.541399 0.446749 0.260583 0.151668 0.492777 0.531475 0.415428 0.278894 0.170553 0.0551004 0.0145559 -0.0480865 -0.0433315 -0.00860318 0.00109151 0.00112254 0.000620466 -0.00527255 -0.011598 -0.00311153 -0.0963756 -0.0485891 -0.0423678 -0.0412916 -0.0335335 -0.177869 0.0589251 0.254998 0.267552 0.22698 0.190233 0.00377656 0.276061 0.531092 0.420996 0.128147 0.0418537 0.00623352 0.0479908 -0.0332017 -0.0299933 0.00092408 4.89584e-05 0.001121 0.00106262 0.00246525 -0.0102937 0.0108631 -0.146529 -0.143746 -0.0554547 0.0520887 0.0119318 -0.127862 0.152917 0.134044 0.193468 0.172101 0.095552 0.00257378 0.384834 0.619837 0.15171 0.00904875 -0.0938427 -0.0834909 -0.0650399 -0.0188537 0.00541671 0.00138256 0.000391652 0.000711864 0.00167342 0.0031244 -0.00681742 0.0846881 -0.0639458 -0.0737627 -0.0450327 -0.0251153 0.121615 0.130818 0.233373 0.298573 0.340802 0.229487 0.303991 0.279087 0.479382 0.23286 -0.0665896 -0.118735 0.0120715 0.000219946 0.0375371 0.0817716 0.00676619 0.00230914 0.0023825 0.000582524 0.00170843 0.00455587 -0.00307554 0.0838225 0.0457229 0.0588543 -0.00260625 -0.0356179 -0.0361967 0.199827 0.333609 0.461514 0.372917 0.421445 0.540329 0.393765 0.243146 0.249352 -0.00639194 0.0545603 0.144269 0.135731 0.041062 0.00661245 0.000425037 0.0018114 0.00027907 0.000835913 0.00102052 -0.000184332 -0.00533549 0.0373419 0.158452 0.0427739 -0.0679762 0.0383506 0.0274252 0.0788556 0.299351 0.188406 0.210802 0.131948 0.201972 0.0696862 0.272746 0.242705 0.0744997 0.114226 0.175116 0.106703 -0.0114144 -0.00279383 0.00104067 0.00215483 0.000802377 0 0.00195556 0.00139986 -0.00997579 0.0275912 0.110389 0.128287 0.118631 0.0612692 0.288073 0.283103 0.304917 0.0967071 -0.0708876 -0.102189 0.0168306 0.0262621 0.206719 0.0678135 -0.00530564 -0.0293702 -0.0383246 -0.0209513 -0.00989291 0.00195808 0.000234997 0.0016023 0.00149786 0.000128205 0.000512091 0.00156668 -0.000814217 0.060486 0.0814168 0.0614023 0.0305459 -0.0304717 0.00417402 0.0767829 0.105005 0.254961 0.0850255 -0.043423 -0.0277359 -0.111411 -0.0320638 -0.052241 -0.0989221 -0.0631638 -0.051135 -0.0253288 -0.00646469 0.00206769 0.00133522 1.4711e-05 0.000411523 0.000575342 0.00168263 0.00200236 0.00191197 0.0508594 0.0751714 0.0992878 0.0664093 -0.00645337 -0.0449733 -0.131908 -0.0664942 -0.0162721 -0.114816 -0.116844 -0.104223 -0.199371 -0.204708 -0.136716 -0.097606 -0.0754852 -0.0402684 -0.00908381 0.00355225 0.00325096 0.00173242 0.000213487 0.000554822 0.00146438 0.000316206 0.000236842 0.000442889 0.00328422 0.00568721 0.00713827 -0.00155653 -0.0374975 -0.0458884 -0.031289 -0.0368179 -0.0232258 -0.0694783 -0.0796453 -0.0948383 -0.066175 -0.0498652 -0.0443499 -0.0340151 -0.0423781 -0.0231141 -0.00318316 0.00174556 0.00103147 0.00176245 0.000344388 0.000917197 0.00187023 0.000114358 3.80711e-05 0.00155894 0.000152144 0.00158527 -0.000323145 -0.00366972 -0.00350293 -0.00158126 -0.000647009 -0.000547746 -0.00228095 -0.00629122 -0.0225743 -0.0154192 -0.010115 -0.00180053 1.3627e-05 -0.00409634 -0.0169227 -0.0171984 -0.00408269 0.000928723 0.00103704 0.00136868 0.00125616 0.00107011 -0.100237 0.746437 -0.83668 0.00761691 -0.665639 -0.376119 -0.106721 1.81021 0.12586 0.761401 0.177084 0.0919118 0.167665 -0.0736036 -0.0377996 0.0932487 0.102582 -0.00535737 -0.302435 0.0182909 -0.0914375 -0.101715 -0.0873348 0.114586 -0.163023 0.0567813 -0.0611676 0.191023 -0.544323 0.087516 -0.0139836 0.0315896 -0.0270477 -0.181055 -0.0819363 -0.0385366 0.04663 -0.0745254 0.0118526 -0.277602 0.0411878 -0.384966 -0.204246 0.0445769 -0.183013 -0.0538472 -0.207085 -0.0215221 -0.185796 -0.157382 0.0050444 -0.0136046 0.0625406 0.0498215 0.0617638 0.0602715 -0.00547412 0.0371267 0.0310012 -0.0148977 -0.185826 0.0267826 0.0138047 0.0564248 -0.0159334 -0.0110323 -0.00976235 -0.402492 -0.384197 0.0409854 -0.104609 0.0246641 0.0156452 -0.0367301 0.0887396 0.0649778 -0.0116456 0.0347013 0.0315543 -0.0355762 -0.00590419 0.0316469 0.0161307 -0.1477 0.00632504 -0.320899 -0.00770286 -0.0746968 -0.0276317 -0.00291434 -0.040761 0.00360585 -0.110156 -0.171664 -0.0338087 0.00356977 -0.0609404 -0.0779091 0.0244278 0.0475183 0.089686 0.0636547 -0.00336023 0.0458744 -0.252296 0.0399713 -0.154278 -0.00591277 0.0107882 -0.0213712 0.00379929 -0.0224092 -0.0269579 -0.0220737 -0.026769 -0.124839 -0.179465 0.00820707 -0.0270468 -0.0891996 -0.108257 -0.102317 -0.124734 -0.0575444 0.00613523 0.0714306 0.179264 0.332993 0.436972 0.190093 0.125219 -0.0383906 0.15322 0.140292 0.0995934 0.0494701 0.00747391 0.0026654 -0.23037 0.0108038 -0.0130885 -0.123643 -0.119646 0.0901121 -0.0719276 -0.0665071 -0.132477 -0.258927 -0.0646716 -0.579839 0.0956067 0.0562687 0.201578 0.522782 0.533374 0.568108 0.905736 0.705234 1.18249 0.68858 0.411213 0.159524 0.22188 0.0396232 -0.0916864 -0.116608 -0.107419 -0.0237934 0.00655494 -0.0726358 0.00627442 -0.00798916 -0.0902576 0.00767079 -0.0899599 0.328379 0.394638 0.944664 0.466114 0.105275 0.155954 -0.0265014 -0.789998 -0.932458 -0.00368848 0.104758 0.506869 0.610057 0.632848 0.50272 0.481701 0.32932 0.0113609 -0.0309982 -0.258918 -0.192563 -0.0786187 -0.123198 -7.78667e-05 0.425507 -0.0906438 0.231395 0.560106 1.09295 1.22058 1.2449 1.00235 0.656033 -0.0937899 -1.68207 -2.64139 -2.3845 -1.22953 -0.0747379 0.682295 1.03062 0.748428 0.363726 0.446912 0.482368 0.211889 0.0887109 -0.0866136 -0.00678645 -0.125744 0.108742 0.0792659 0.110283 0.287021 0.498948 1.27877 1.36026 1.62488 1.0996 1.0913 0.198237 -0.339307 -0.97047 -0.849936 -0.530907 -0.784254 0.48704 1.13815 0.855521 1.01453 0.236872 0.372645 0.578424 -0.0624736 -0.210515 0.0652083 0.0175805 -0.354706 0.00640794 -0.0337974 0.401895 0.508349 0.687337 1.05673 1.17446 1.38535 0.618141 0.460601 -0.19816 -0.180573 0.333214 0.734584 1.11821 1.30972 1.41245 0.856919 0.289277 0.383292 0.432901 0.432272 0.628164 0.315741 0.13183 0.056865 0.0372674 0 0.201591 0.271 0.43038 0.533065 0.355103 0.304822 0.460919 -0.0653699 0.0587719 0.282139 0.564296 1.04363 1.0339 1.59545 1.75646 1.04787 0.943976 0.237369 -0.56659 -0.407006 -0.0295261 0.35109 0.308625 0.231503 0.0510898 0.0322953 0.0162393 0.00035503 0.111103 0.25246 0.389053 0.359222 0.12511 0.26372 -0.0550327 -0.235314 0.293344 0.20088 0.820383 1.23415 1.01853 0.712478 0.565124 0.519639 0.626691 -0.105462 -0.739276 -0.494305 -0.292259 0.170948 0.321559 0.266613 0.0528184 0.00607477 -0.000813396 0.00336185 0.014389 0.188712 0.309107 0.1789 0.225773 0.177887 -0.384533 0.309192 0.302054 0.375421 0.72948 0.605378 0.0977364 -0.308716 -0.292497 0.679927 0.613748 -0.173506 -0.626408 -0.149727 -0.00685603 0.0461506 0.159081 0.132379 0.0393038 0.00424761 0.00116137 0.000380711 0.00525266 0.0686174 0.112324 0.0485033 0.25458 0.343203 -0.293191 0.0650007 0.281025 0.324192 0.940931 0.423199 -0.427311 -0.986347 -0.447319 0.241915 -0.108396 -0.285897 -0.505248 0.0160693 0.0685516 0.0858923 0.0785655 0.0643467 0.0179773 0.0201495 0.00112531 0.00156398 0.00140727 0.00215609 0.120188 0.125111 0.15275 -0.0422103 -0.526356 -0.0756281 0.218722 0.14787 0.376895 0.284707 -0.339471 -0.0328907 0.0203996 0.0727768 0.108085 -0.0705725 0.20087 0.441384 0.589275 0.561264 0.283937 0.141218 0.103761 0.020024 0.00175919 0.00173333 0.00245651 0.0230684 0.0880775 0.249252 0.0530444 0.214388 -0.00225688 -0.595735 0.0348791 0.143059 0.0869903 0.0706037 0.332844 0.521545 0.691089 0.00838082 -0.0253611 0.132069 0.71749 1.08196 0.883385 0.745119 0.289261 0.0315116 -0.017038 -0.00222478 0.0026242 0 0.00297678 0.0069442 0.0267338 0.0845792 0.415345 0.40317 0.239964 0.0873369 -0.763838 -0.763964 -0.514459 -0.254399 -0.0630497 0.559125 0.948538 0.16485 0.2885 0.174809 1.0085 1.16814 0.89872 0.576527 0.149751 0.0233915 -0.0108487 0.0114474 0.000875551 0.000948617 0.00104194 0.00042322 -0.013597 -0.0120895 0.217559 0.427349 0.411618 0.128903 -0.189369 -0.542795 -0.663398 -0.249741 0.674892 1.52258 1.08324 0.613683 0.534904 -0.0363994 0.799727 0.976139 0.774189 0.369635 0.0591225 0.0448027 0.0707485 -0.000801159 -0.00111551 -1.59297e-05 0.00235498 -0.0037828 -0.0208898 -0.0629939 -0.121723 -0.0212687 0.206553 0.373355 0.298522 0.0207654 0.293007 0.640736 1.13837 1.13366 1.03699 0.755449 0.37934 0.408329 0.423542 0.738396 0.350546 0.205463 0.169941 0.162537 0.206844 -0.00179104 0.00113403 0.00186833 0.00250207 0.0199523 -0.00610994 -0.0282039 -0.152667 -0.11315 0.0907075 0.274241 0.34305 0.532906 1.04235 1.20307 0.920823 0.968364 0.785526 0.663968 0.31011 0.563702 0.231264 0.366719 0.30888 0.186706 0.159481 0.114231 0.0552308 0.000215549 0.00144701 0.00172881 0.0012867 0.00181606 -0.0214897 0.0174946 -0.121296 -0.193582 0.0985882 0.455191 0.604804 0.838536 0.991574 0.774517 0.838896 0.957554 0.259527 0.539028 0.354103 0.710783 0.166951 0.254835 0.261627 0.108154 0.016788 -0.0838501 0.013354 0.000969527 0.000243112 4.85437e-05 0.00265248 0.00239231 -0.00776367 -0.018248 -0.0524548 -0.135806 -0.0842539 0.303064 0.702546 0.882021 0.712734 0.686835 0.849125 1.03418 0.529485 0.313238 0.383895 0.647994 0.0805975 0.0671388 0.0279616 0.0367163 -0.0540637 -0.0652264 0.00617598 0.00309209 0.000465116 0.000417957 0.00117508 0.00795942 0.00767406 -0.0167609 0.0159112 -0.0549301 -0.0955745 0.1841 0.862016 0.659556 0.807396 0.918332 1.24647 1.1611 0.872699 0.618256 0.444463 0.60466 0.0861497 0.0371041 0.0518756 0.22113 0.0714685 -0.000297647 0.00145753 0.00116965 0.00213967 0.000311573 0.000355556 0.00273871 0.00313479 0.0039128 0.0545367 0.0747986 0.0348231 0.331817 0.52917 0.690187 0.931895 1.08416 1.16796 1.1198 1.14886 0.975077 0.286503 0.32886 -0.0543326 -0.374502 -0.142333 0.0404127 -0.0208994 0.0155275 0.000745552 0.000635216 0.000256776 0.00149573 0.00140825 0.00183102 0.00230522 0.00164745 -0.00753823 0.060843 0.139078 0.37773 0.361907 0.475946 0.633567 0.670376 0.695948 0.528517 0.731131 0.386457 -0.416548 -0.36618 -0.356803 -0.635885 -0.518546 -0.240592 -0.0572823 0.0490548 0.0463197 0.0224194 0.0017284 8.21918e-05 0.000697674 0.000573361 0.00413714 0.00465387 -0.0248919 0.00908706 0.198723 0.109019 0.0910111 0.247026 0.247563 -0.226931 0.307429 0.476601 0.557293 -0.117461 -0.774573 -0.952136 -0.833403 -0.748095 -0.5124 -0.13869 0.00524347 0.00628984 0.0200501 0.0223266 0.000475561 0.000791557 0.0012253 0.00102632 0.00147425 -0.000223729 -0.00680314 -0.00763897 0.0438577 -0.208393 0.0454887 0.278933 -0.227874 -0.321386 0.249673 0.269451 0.364661 0.273011 -0.27453 -0.0866714 -0.317199 -0.570297 -0.299249 -0.0453839 0.00266614 0.000688617 0.000689655 0.000918367 3.82166e-05 0.000419847 0.000190597 0.000609137 0.00102662 0.000497341 -0.00202111 -0.0093594 -0.0158845 -0.00754027 0.00210489 0.00391013 0.0327866 0.0420248 0.114984 0.0563633 0.0716904 0.0639218 0.00619254 -0.0108414 -0.167793 -0.204894 -0.210479 -0.0414576 6.95858e-05 0.000259259 3.69914e-05 0.000665025 0.00121771 0.0225311 0.0468313 0.0148461 0.0231176 0.0269497 0.0286185 0.0247098 0.0133241 0.0286188 0.0256615 7.42256e-05 0.00806853 0.016215 0.0308663 0.0313207 0.000431262 0.0140101 0.00457816 0.00168334 0.0164629 0.00451684 0.00564342 0.0175638 -0.00111045 0.0100717 0.0159707 0.000646576 0.0137565 0.00362914 0.00728388 0.0234304 0.00817997 0.00817809 0.0127486 0.0142303 0.00646296 0.000243589 0.00559709 0.00910841 0.010668 0.0151427 0.00961587 0.0165652 0.0162795 0.00289608 0.0181057 0.00440819 0.0187012 0.015874 0.0175915 0.0156963 0.0131632 0.00681497 0.00587707 0.00970498 0.00798813 0.0105435 0.0127871 0.00160848 0.00322608 -0.000565427 0.0152463 0.00201162 0.012373 0.00222667 0.0103552 0.00607751 0.00516412 0.000564292 0.00510818 0.01347 0.00557227 0.0136944 0.00565519 0.0119613 0.00469514 0.000728836 0.00646549 0.011944 0.0130949 0.0062871 0.00780422 0.00443261 0.00626901 0.0124315 0.00878502 0.00559993 0.00168278 0.00892596 0.00354023 0.00201152 0.00606323 0.00734127 0.00764673 0.00263045 0.00905356 0.00485606 0.00317821 0.0100083 0.00665378 0.00240113 0.00218254 0.0101716 0.00596765 0.000352476 0.00268551 0.0045364 0.00897628 0.0103193 0.00465449 0.0101583 -5.63431e-05 0.00164694 0.00589669 0.00935106 0.00862104 0.00765517 0.00177133 0.00440107 0.00494151 0.00821119 0.00708438 -0.00180339 0.000695328 0.0055805 0.00438161 -7.19385e-05 0.00749582 0.00300543 0.00811769 0.00307779 0.00601062 0.00384511 0.00879716 0.00711933 0.006027 0.00342076 0.00644636 0.00216286 0.00544259 0.00203983 0.00587727 0.00548631 0.00632491 0.00725654 -0.000198383 0.00114982 0.00108204 0.00577805 -0.000281644 0.00230977 0.00517679 0.0030459 -0.00294632 0.00351535 -0.00205748 -0.00589864 -0.000406411 -0.00225629 -0.000969157 -0.00528225 -0.00863351 -0.00774902 -0.00369334 0.00761504 -0.00014242 0.00650413 0.00562759 0.00473808 0.000475892 0.00546923 0.00169259 0.00133869 0.0028042 0.00478141 0.00297679 0.00335519 -0.00257893 -0.0034858 -0.00805409 -0.00605832 -0.0100831 -0.0129469 -0.0116255 -0.00906688 -0.00742127 -0.0110801 -0.006914 -0.007488 -0.00730637 -0.00538214 -0.000852847 0.00543612 0.00212434 0.00359725 0.00491197 0.00337072 0.00180435 0.00592408 0.00362123 0.00363158 0.00414167 0.00437554 -0.00123352 -0.0100965 -0.0064189 -0.00914519 -0.0106816 -0.0105979 -0.0120707 -0.0111057 -0.0110912 -0.0102915 -0.00910346 -0.000114187 -0.00538277 -0.000638641 0.00140848 0.00038209 0.000317929 0.00279029 0.00643689 0.00489382 0.00295704 0.00350032 0.000361973 0.000366765 0.00343886 0.00315832 0.000993548 -0.000977741 -0.00239905 -0.00760477 -0.0114055 -0.00806115 -0.00851196 -0.00834267 -0.00607666 -0.00832346 -0.00397448 -0.0109678 -0.0113105 0.00457555 -0.00153511 -0.0007004 0.00126847 0.00330353 0.0061204 0.00690437 0.0062869 0.00136737 0.00239518 0.00204986 0.00101649 0.00249995 0.00273954 0.00215046 -0.000372666 0.00111006 -0.000841355 -0.00219563 -0.00472393 -0.00558418 -0.00650357 -0.00702506 -0.00490512 -0.000460363 7.76712e-05 0.00126423 -0.00636762 0.00194601 -0.0025666 -0.0027633 -0.00198282 0.000835959 -0.000600678 0.00466565 0.000648561 0.000652961 0.00338471 0.0033871 0.00424944 0.00450107 0.00394007 0.00340975 0.00311511 -0.00157152 -0.00129177 0.00204882 -0.000493054 0.00208048 -0.00148587 -0.00439869 -0.00139632 0.00242021 0.000157174 -0.000419112 -0.0032021 0.000696866 0.000812604 -0.000712564 -0.00121876 -0.00293303 -2.66119e-05 0.00462655 0.000750993 0.00287856 0.00115253 0.00239645 0.00274935 0.00370855 0.00264343 0.00208484 -0.00225317 0.00149162 0.000344258 -0.00016518 -3.28428e-05 0.00425358 -3.3216e-05 -0.00599717 -0.00669225 0.00135075 -0.000388775 0.00172589 -0.000401436 0.000121864 -0.000689857 -0.00146876 -0.000933021 -0.00146785 -0.00140789 0.000100364 0.00195293 0.00349998 7.25301e-05 0.00131157 0.00360313 0.00314621 0.00312396 -0.000526346 -0.000547593 0.000856393 0.0019929 0.00322771 0.002534 0.00733779 0.00403517 -0.00602582 -0.0113257 -0.00317596 -0.00228698 0.00200889 -0.000999196 -0.00203913 -0.00118162 0.000163746 -0.00241342 -0.00316913 -0.000698824 0.000816552 0.000805238 0.00234491 0.00274674 0.000761421 0.00121532 0.00372762 0.00170651 -0.00251503 0.000241805 0.00160072 0.0011611 0.00217493 0.00622015 0.00714092 0.00449744 0.00165298 -0.0124306 -0.0133787 -0.0114785 -0.00726117 -0.000626623 0.000424248 0.0026387 0.00289981 -0.000695014 -0.00141597 0.00087144 0.00198689 0.0014011 0.00288151 0.00283722 0.00305687 0.00312218 0.000655446 0.000609989 0.000783164 -0.000424418 0.000798416 0.00404079 0.00181996 0.0045087 0.00509005 0.00501838 -0.000337405 -0.00638122 -0.0157705 -0.0151778 -0.0125312 -0.00377334 0.00244481 0.00350013 0.00304369 0.000131451 -0.000325343 0.00221876 0.000443418 0.00234564 0.000327015 0.00133567 0.00286667 0.000397934 0.00280226 0.000721586 0.0012477 0.000417354 -0.000604281 0.00239525 -0.000538514 0.00274166 0.0020928 0.0013748 0.000662748 -0.00138119 -0.00113527 -0.00622945 -0.0136925 -0.0110974 -0.00403009 0.00169632 0.00143267 0.00115223 -0.0014736 0.00257548 -0.00039741 0.00224837 0.000816409 0.000307502 0.00169456 0.002943 0.00167312 5.24581e-06 0.00137393 -0.000711234 -0.0015346 0.000102118 -0.00128501 -0.00302234 -0.00105404 -0.00141834 -0.0014376 0.00103009 0.00484455 0.00217818 -0.00393982 -0.0101399 -0.0073819 -0.00685847 0.00210452 -0.000564749 -0.000554253 -0.000102805 0.00162242 -0.000230237 0.00189049 0.00243524 0.00213439 0.00254408 0.00116548 0.000520005 0.00237348 -0.00126982 -0.00239327 -0.00502751 -0.00416337 -0.00144573 -0.0021408 -0.000806079 -0.00248244 0.00142201 0.0036584 -0.00153479 -0.0004067 -0.0140113 -0.0111548 -0.011038 -0.00193049 -0.000826841 -0.000315897 0.00186515 0.000959411 0.000708835 -8.27256e-05 0.00190492 0.00252866 0.00140183 0.00140351 0.00209212 0.00160782 -0.000753315 -0.000373482 -0.00164039 -0.00429865 -0.00405451 -0.00236067 -0.00190813 -0.000975799 -0.000474477 -0.000221229 -0.00288309 -0.00915437 -0.0124548 -0.00995577 -0.00869227 -0.000979774 -0.00250906 -0.000345381 0.0015821 0.00191857 0.00239618 0.000321046 0.000956185 0.000960854 0.000637368 0.000806549 0.000660773 0.000519605 -0.00108479 -0.00165223 0.00251161 -0.00129122 0.000309168 -0.00200334 -0.00291762 -0.00342735 -0.00376017 -0.00541106 -0.0082178 -0.010216 -0.0117549 -0.0123197 -0.00917518 -0.00160699 -0.00315307 -0.000375174 0.00183839 0.00126156 0.00147725 0.00157403 0.00152591 0.00167797 0.00238437 0.00110752 0.00123926 -0.000296171 -0.000728538 -0.000154211 -0.000540218 0.000968437 -0.000517261 -0.000428762 -0.00381378 -0.00497238 -0.00528903 -0.00698118 -0.00796461 -0.00987438 -0.0108221 -0.00337326 0.000145518 -0.00225941 -0.0010835 -0.000655298 0.000413497 0.00143997 0.00108057 0.000240196 0.00179903 0.000339806 0.000434563 0.0014037 0.00171923 -0.000318267 -0.00049363 -0.000392921 -0.000215865 0.000119591 -0.00181437 -0.0077325 -0.00763986 -0.00742356 -0.00913927 -0.00763255 -0.00701838 -0.00326548 -0.00259763 0.00145822 -0.000607408 -0.00232743 -0.00149275 0.00064751 0.00172673 0.0020926 0.00144975 0.00121091 0.000604651 0.0022291 0.00162282 0.000713586 0.000147039 0.000901233 -6.03351e-05 -0.00173679 -0.00744677 -0.00882236 -0.0099183 -0.00991058 -0.0117585 -0.0100106 -0.00676311 -0.0015266 0.00170021 -0.00058711 -0.00191452 3.51782e-05 0.000114896 -0.00169137 -0.00074662 0.00156527 0.0016023 0.000492539 0.00069363 0.00107435 0.00187221 0.0021365 0.000533333 0.00183386 0.000618785 -0.00229009 -0.00657633 -0.00970834 -0.00959154 -0.0095857 -0.0113475 -0.0103455 -0.010552 -0.00697825 0.000713244 0.00201333 0.00102343 -0.00157183 0.000944676 0.00180832 -0.00030998 -0.000540212 -0.000187661 0.00162931 0.00170457 0.00125162 0.00188241 2.51602e-06 0.00184023 0.00017094 0.00187767 0.000149371 0.00174001 -0.00522075 -0.0106039 -0.0101394 -0.00977363 -0.00889202 -0.00693915 -0.00763638 -0.00114476 0.000987243 4.63893e-05 0.00173935 -0.000245572 -0.00115197 -0.000378586 0.00148455 0.000482083 0.00192734 0.000395164 0.000587099 0.00167013 0.00112394 0.00172862 0.000412289 0.00164609 0.000328767 0.00102599 0.00159658 0.000774133 0.00158669 0.00132449 0.00117634 -3.18072e-05 0.00111207 3.17176e-05 -0.000516799 8.3281e-05 0.00132399 0.00133072 0.00180397 0.000345854 0.000838938 -0.000669626 0.000273859 -0.000111389 0.000974417 0.000666432 0.00195549 0.000302673 0.000887802 0.000318914 0.00158739 0.000277411 0.00186016 0.0012253 0.00142105 0.00181339 0.000217812 0.000486234 0.000335603 0.00146793 0.000388799 -0.000189278 -0.00021476 0.00065269 -0.000291276 0.00155542 0.000485242 0.000847492 0.000614444 0.00115022 0.00113191 0.00167484 0.00172478 0.00111862 0.00168086 0.000110179 0.000767329 0.000383142 0.000191327 0.000343949 0.000801527 0.000800508 0.00159898 0.00121673 0.00159519 0.000771939 0.00096068 0.00113864 0.000640854 0.00143264 6.82007e-05 0.000102704 0.000300907 0.000598718 0.000845935 0.00107837 6.91804e-05 5.75117e-05 -2.18862e-05 0.00142976 0.00168458 0.000480217 0.00127298 0.00070305 0.00062963 0.00159063 0.000369458 0.000221402 0.0408051 0.0456681 0.0422107 0.0282299 0.0412327 0.0202933 0.0338782 0.0299587 0.0347404 0.0107981 0.0257775 0.0176671 0.00905663 -0.0005265 0.0216904 0.0137606 0.028403 0.0011568 0.00405361 0.0274704 0.0278495 0.00381187 0.0105374 0.018275 0.0191066 0.0121871 0.0226552 0.0158989 0.019572 0.0117359 0.0229017 0.0185941 0.0224602 0.00685042 0.00514072 0.00779928 0.00770209 0.00814439 0.0138195 0.00480502 0.0154573 0.0159023 0.00542231 0.0129826 0.0150991 0.00769026 0.0135088 0.0104394 0.0169944 0.00158496 0.00481962 0.0179722 0.00689457 0.0019102 0.0110977 0.00522205 0.00148053 0.0021225 0.00672559 0.00332913 -0.000609315 0.00302663 0.00445728 0.00396723 0.012107 0.0087766 0.0144315 0.0101725 0.0107882 0.0141768 0.00514652 0.0136504 0.0033231 0.00383773 0.00374413 0.00903834 0.00677944 0.00743064 0.00993874 -0.00068808 0.0124456 0.0112648 0.00211902 0.00166632 0.00497999 0.00114713 0.00765559 0.00414953 0.00377841 0.001104 0.00481186 0.0027704 0.000918495 0.00039404 0.0113095 0.00867142 0.0101288 0.00348331 0.00591523 0.000559408 0.00451717 0.00264068 0.00469478 0.00205211 0.00573978 0.00847125 0.00434398 0.00153898 0.00803783 0.00679009 0.00437478 0.00331264 0.00477356 0.00250405 0.00742816 0.00399911 0.00328988 0.00822408 0.00342468 0.00113618 0.00522455 0.00179716 0.00794174 0.00574136 0.000740752 0.000847201 0.00713358 0.0086853 0.00379783 0.00775557 0.00181225 0.00277632 0.00717319 0.00469132 0.00677241 0.000875164 0.00509437 0.00704062 0.00157655 0.00259923 0.00765948 0.00522995 0.00282073 0.000866089 0.00524563 0.00199094 0.000539286 0.00109291 -0.000510331 0.00348072 0.0052604 0.000228195 0.00211707 0.000294332 0.000705476 0.000247424 -0.00128781 -0.000256088 -0.000139038 0.0057566 -0.00424385 -0.00545763 -0.00577555 0.00180934 0.000939281 -0.000267741 0.00522805 0.00660805 0.00124695 0.0037624 0.00155446 0.00108867 0.0053442 0.00162944 0.00599723 0.00283366 -0.00146361 0.00228516 -0.00213958 -0.00207033 -0.000649224 -0.00617365 -0.010354 -0.00922014 -0.00721483 -0.00694514 -0.00828835 -0.00453428 -0.00946609 -0.00286659 -0.00728984 0.00339153 0.00212013 0.00342795 0.00299743 0.00496153 0.00391997 0.00293042 0.00470618 0.00341452 0.00427826 0.000994885 0.00395932 0.0014828 -0.010438 -0.00906772 -0.0104382 -0.0104332 -0.00872087 -0.00761447 -0.00994231 -0.00615494 -0.00623306 -0.0115839 0.00225163 -0.000270413 0.00274188 0.00138626 0.0028913 0.00642309 0.00715369 0.00158868 0.00421281 0.00538803 0.00264548 0.00173013 0.00404942 0.000668944 0.00262995 0.00146741 -0.00125242 6.49741e-05 -0.00912814 -0.00642676 -0.0098834 -0.0106163 -0.00543558 -0.00754976 -0.00953642 -0.00740597 -0.0116301 -0.00805847 0.000257988 0.0026023 0.00434948 0.00158395 0.00512747 0.00306218 0.00110389 0.00232413 0.0046903 0.00507313 0.00129257 0.000450939 4.63197e-05 0.00122924 0.00444131 0.00276083 -0.000266415 -0.000132275 -0.00148767 -0.00617086 -9.1303e-05 -0.00711168 -0.00938317 -0.0090279 -0.00346296 -0.00208945 -0.00131116 -0.00789009 0.000215859 0.000639852 0.00104449 0.00287328 0.00190237 3.93947e-05 0.00115948 0.00334692 0.00359444 0.002577 0.0033871 0.0025009 0.00389082 0.00458303 0.0026745 0.00220308 0.000390617 -0.00112244 0.00178759 0.000598537 0.0033937 -0.00609708 -0.00692229 -0.00359652 -0.00213687 -0.00440752 -0.000743894 0.000773441 -0.000418869 -0.00217081 -0.00237182 -0.00209615 -6.06766e-05 0.0026513 0.00350793 0.00129152 0.00234875 0.00233308 0.00221893 0.00353746 0.00350176 0.00060184 0.00225318 0.00174706 -0.00108413 0.000955554 -0.000434747 0.00169144 0.00228822 7.1634e-05 -0.00856104 -0.00836007 -0.00229949 -0.00214965 0.000163537 -0.00135055 -0.00193901 0.000148505 -0.00151831 -0.00110847 -0.00303949 -0.000787013 0.000262037 0.00258041 0.000833041 0.00353821 8.01899e-08 0.00171848 0.000916506 0.00220807 -0.000512401 0.000793815 -0.000545488 -0.00118996 -0.000233669 0.00175829 0.00413417 0.00408565 -0.00743707 -0.0114624 -0.00184963 -0.000908355 0.00156443 -0.000700605 0.00120579 -0.00115658 0.00119326 0.000152533 0.000713974 -0.00106962 0.001096 0.00144708 0.00209783 0.00290092 0.000837563 0.00341993 0.000126291 0.00315134 0.00137872 0.00195667 0.000120464 0.000857305 0.00218763 0.00227694 0.0020279 0.00467794 -0.00123479 -0.00877028 -0.00824796 -0.00804692 -0.00388692 -7.63297e-05 -0.000527106 0.00160008 0.000633618 -0.000187962 -0.00253018 8.18811e-05 0.00208859 0.000328455 0.00104713 0.00256237 0.00135071 0.00170553 0.00254549 0.00154864 -0.00104347 -0.00133651 -5.36814e-05 0.00130568 0.000783232 0.00126744 0.000885799 0.00392861 0.00147979 -0.00455116 -0.0113403 -0.0118187 -0.00802964 -0.00219448 0.0029519 0.00127652 0.00139533 0.000265415 8.33863e-05 0.000528257 9.87701e-05 0.000497156 0.00196933 0.00200427 0.00173333 0.00266345 0.00253123 0.00267997 6.6308e-05 1.06001e-05 -0.00161547 0.00139142 0.000201037 0.00100614 -0.000978148 0.00154172 0.00118225 -0.000363129 -0.00199602 -0.00504241 -0.0100645 -0.00916119 -0.00208206 0.00107692 -0.00055772 -0.000476964 0.000203253 0.00191743 0.00235316 0.00195984 0.000491652 0.00170086 0.00144351 6.42799e-05 0.000439156 0.00270594 -0.000137832 0.000590298 -0.00212413 -0.0024465 -0.00094477 1.99274e-06 -0.00179186 -0.00077889 0.000440094 -0.000489734 0.00161551 0.00168063 -0.0019819 -0.00927076 -0.006982 -0.00659982 -8.66217e-05 0.000462934 -0.000150993 0.00124058 0.00115965 0.00245001 -0.000190766 0.00208189 0.00237154 0.00130242 0.00226623 0.00114288 0.00250333 0.00189794 -0.000811096 -0.00264912 -0.00425893 -0.00421443 -0.00464819 -0.000983084 -0.00189557 0.000604958 0.00178909 0.00156147 0.00190714 -0.0117406 -0.00903895 -0.0115359 -0.00130399 -0.000645419 -0.000553653 0.000304336 0.00218373 0.0024559 0.000921573 0.00152125 0.000225382 0.000224384 0.00237947 5.38856e-05 0.00137866 0.00211541 0.00157439 -0.00125093 -0.00134848 -0.00320304 -0.00202873 -0.00167006 -0.00274666 -0.00162457 0.000192286 -0.00530702 -0.00742275 -0.0130927 -0.00959678 -0.0086204 -0.000217782 -0.00043307 0.00126259 0.00166214 0.000839256 0.000489283 0.000666808 -7.6436e-07 0.000640569 0.00181153 0.00145589 0.00128738 0.000785529 0.00166148 0.00135486 0.000725566 0.000605839 -0.00234039 -0.00203479 -0.0018785 -0.00507572 -0.00782822 -0.010682 -0.00906202 -0.011718 -0.0133618 -0.0109712 -0.00782165 0.000497344 -0.00274154 -0.000258341 0.00126183 0.001144 0.000462312 0.000703059 0.000864526 0.000864407 0.00101656 0.00095964 0.000244757 0.00213058 0.000446283 -2.35296e-05 -0.000565491 0.0013245 -0.000961462 -0.00352296 -0.00579592 -0.0100101 -0.0126997 -0.0124436 -0.0116809 -0.0133998 -0.0114168 -0.00229008 0.000357712 -0.00111645 -0.00114276 0.00124864 0.000904382 0.00168109 0.0014293 0.000672062 4.86224e-05 0.00145631 0.00169678 0.000106978 0.0010809 -3.64278e-05 0.00150501 0.000991832 0.00209241 -3.59621e-05 -0.0024774 -0.00948764 -0.0112674 -0.00997551 -0.0116302 -0.0103789 -0.00783986 -0.00492067 -0.0012424 0.00137451 0.00028099 -0.000961638 -0.000275657 0.00183193 0.000968199 0.00188239 0.00054906 0.00223595 0.00148837 0.000789474 0.000139114 0.00215123 0.000557712 0.00193758 0.000439575 0.000791796 -0.0057338 -0.00649309 -0.00797639 -0.00970561 -0.0100285 -0.00834672 -0.00688185 -0.00199307 0.00266069 1.78727e-05 0.00175917 0.00296042 0.00183946 0.00122089 -0.00121652 0.00156417 0.00192131 0.000142701 0.00110303 0.00125258 0.000401189 0.00173591 0.000888889 0.00215724 0.000488796 -0.000910543 -0.00714747 -0.00990546 -0.00863814 -0.00914605 -0.00981554 -0.00842427 -0.00958089 -0.00337194 0.00276925 0.0022511 0.00141967 0.00231285 0.00231377 0.00145484 0.00159046 0.000810899 0.00187642 0.000650696 0.000238812 0.00103062 0.0011195 0.0019693 0.000256776 0.000213675 0.00192034 0.00156103 0.0017622 -0.00455431 -0.00988704 -0.00991795 -0.00987764 -0.00844243 -0.00531801 -0.0068879 0.000629892 0.001579 0.00143143 0.00240774 0.00115508 0.000911046 0.00174396 0.00142841 0.0022135 0.00253115 0.00020859 0.000228686 0.00163691 0.000523681 0.000280579 0.00127555 0.00197531 0.000164384 0.000861833 0.00163929 0.000362079 0.000235665 0.000762618 0.000863125 0.00035511 -1.60919e-05 -0.000655618 -0.00107132 0.000781467 -0.000175302 0.000213784 0.00136708 -0.000398701 0.000276689 0.000778138 0.00156449 0.00165678 0.00154683 0.00142032 -0.000211828 0.000731796 0.000781771 0.000315987 0.000434363 0 0.000158311 0.0013834 0.000118421 0.000472786 0.000289554 0.000660501 0.0013334 -8.4279e-05 0.00117363 9.61045e-05 0.00118169 0.000140916 0.00104457 0.00146667 -0.000517574 -0.000527077 0.000510587 0.00126412 0.00138115 0.00157536 0.00181349 0.00131874 0.000807668 0.000252813 0.00130452 0.00180077 0.000191327 0.000802548 7.63359e-05 0 0.000418782 0.000646388 0.000569841 0.00149375 4.64343e-05 0.000797225 0.000489964 0.000320384 0.000128639 9.65307e-05 0.00119357 0.00130553 0.00136382 0.000207057 0.00166495 0.0012858 0.000496698 0.000471349 0.000976542 0.00109632 -0.000388828 0.00153602 0.0012963 0.00181258 0.00140394 0.000184502 0.0399512 -0.0780488 0.0890016 0.0128797 0.0565675 0.02738 0.0224577 -0.0278915 0.0151713 -0.207643 0.0162322 -0.00233359 -0.0238659 0.0291867 0.0333389 0.0162427 0.0206768 -0.000675594 0.0647431 0.0010149 0.0123257 0.0295059 0.0146377 0.00891196 0.0265382 0.0132084 0.0243081 0.00108399 0.03603 0.0152537 0.00444276 0.0240975 0.00956326 0.0218355 0.0172534 0.0189334 0.0167991 0.0088955 0.00148927 0.0292729 0.0071107 0.0224227 0.0308804 0.000440449 0.023285 0.0220403 0.00690239 -0.00243778 0.0222176 0.000115555 0.0066122 0.0166466 0.0146671 0.00248988 0.00167678 0.00933724 0.000579181 0.00118359 0.0152013 0.00646293 -0.00682911 0.0127677 0.0195195 -0.00376859 0.00768826 0.0111902 0.0101005 0.0168824 0.0179779 -0.000480028 0.00129018 0.00446361 -0.00940626 0.00524981 -0.0212382 -0.0159817 0.0102304 0.00992379 0.00308822 0.01204 0.00349062 0.0110845 0.00260564 0.00726297 0.0106768 0.032315 0.00173471 0.011613 0.0097623 0.00255768 0.0114358 0.0118172 0.00750876 0.0199973 0.000363812 -0.00663933 0.00183283 0.00139623 0.00327864 -0.00482434 -0.0368195 -0.0463241 -0.0376187 -0.0359367 0.0133089 0.00818277 0.0163833 0.002916 0.00597017 0.0076187 0.00872325 0.00280061 0.00177799 0.0112258 0.0101846 0.0126838 0.0164282 0.00767961 0.0015204 0.0118265 0.00855533 -0.00792654 -0.0137129 -0.0250729 -0.00355803 -0.0209012 -0.017106 -0.0123616 -0.0407429 -0.0468483 0.00146679 0.0159665 -0.0240262 0.000289889 0.0157353 0.00534787 0.00325342 0.00168828 0.019255 0.00520068 0.00810953 0.00867169 0.0084952 -0.00811309 0.00710566 0.00557949 0.0145851 0.0346546 0.0116309 0.0646734 0.00721875 0.0121598 0.0415696 0.0166051 -0.0250139 -0.0575489 -0.103625 -0.112137 -0.0829023 -0.0638095 -0.0237128 -0.0141496 -0.0394186 -0.0327363 0.0143217 0.0255039 0.0100305 0.0051107 0.00102121 0.0104097 0.0044131 0.00600646 0.0104554 0.0107945 0.054053 0.0419829 0.00514003 -0.0244807 -0.0188554 0.0316576 0.0735773 -0.0158523 -0.061119 -0.165576 -0.170209 -0.179596 -0.150527 -0.0721709 0.0264242 -0.0103392 -0.0215536 -0.0103466 